{"learner":{"attributes":{"best_iteration":"161","best_score":"3.3096821244694286","scikit_learn":"{\"_estimator_type\": \"regressor\"}"},"feature_names":["hardware_encoded","framework_encoded","model_name_encoded","num_devices","seq_len","batch_size","predicted_latency"],"feature_types":["int","int","int","int","int","int","float"],"gradient_booster":{"model":{"gbtree_model_param":{"num_parallel_tree":"1","num_trees":"212"},"iteration_indptr":[0,1,2,3,4,5,6,7,8,9,10,11,12,13,14,15,16,17,18,19,20,21,22,23,24,25,26,27,28,29,30,31,32,33,34,35,36,37,38,39,40,41,42,43,44,45,46,47,48,49,50,51,52,53,54,55,56,57,58,59,60,61,62,63,64,65,66,67,68,69,70,71,72,73,74,75,76,77,78,79,80,81,82,83,84,85,86,87,88,89,90,91,92,93,94,95,96,97,98,99,100,101,102,103,104,105,106,107,108,109,110,111,112,113,114,115,116,117,118,119,120,121,122,123,124,125,126,127,128,129,130,131,132,133,134,135,136,137,138,139,140,141,142,143,144,145,146,147,148,149,150,151,152,153,154,155,156,157,158,159,160,161,162,163,164,165,166,167,168,169,170,171,172,173,174,175,176,177,178,179,180,181,182,183,184,185,186,187,188,189,190,191,192,193,194,195,196,197,198,199,200,201,202,203,204,205,206,207,208,209,210,211,212],"tree_info":[0,0,0,0,0,0,0,0,0,0,0,0,0,0,0,0,0,0,0,0,0,0,0,0,0,0,0,0,0,0,0,0,0,0,0,0,0,0,0,0,0,0,0,0,0,0,0,0,0,0,0,0,0,0,0,0,0,0,0,0,0,0,0,0,0,0,0,0,0,0,0,0,0,0,0,0,0,0,0,0,0,0,0,0,0,0,0,0,0,0,0,0,0,0,0,0,0,0,0,0,0,0,0,0,0,0,0,0,0,0,0,0,0,0,0,0,0,0,0,0,0,0,0,0,0,0,0,0,0,0,0,0,0,0,0,0,0,0,0,0,0,0,0,0,0,0,0,0,0,0,0,0,0,0,0,0,0,0,0,0,0,0,0,0,0,0,0,0,0,0,0,0,0,0,0,0,0,0,0,0,0,0,0,0,0,0,0,0,0,0,0,0,0,0,0,0,0,0,0,0,0,0,0,0,0,0,0,0,0,0,0,0],"trees":[{"base_weights":[4.5130336E-1,1.465877E1,-1.546994E1,-3.7432609E0,1.0810255E2,-1.4441747E1,-1.613653E1,-5.84574E0,1.5426506E1,1.0555656E1,1.7455093E2,-1.476865E1,-1.3029057E1,-1.6704842E1,-1.594354E1,-1.6335453E1,-3.2522976E0,1.0510023E1,2.3268517E1,5.8691335E-1,2.1888361E1,3.0882364E2,1.26735985E2,-1.5480975E1,-1.4141491E1,-8.693336E0,-1.3327672E1,-5.0982714E-1,-1.6551428E1,-1.6331573E1,-1.5565157E1,-1.5323505E1,-1.6601534E1,1.1063874E1,-4.5324388E0,6.361728E0,1.5661549E1,1.8805885E1,2.8460752E1,1.4152764E1,-3.7294564E0,6.574824E0,3.3495808E1,3.84376E2,3.1668001E1,1.5537076E2,3.0200716E1,-1.5728832E1,-1.4741874E1,-1.3079402E1,-1.5236421E1,-2.2408676E-1,-2.8695944E-1,-1.2166607E1,-1.441728E1,-1.6173271E1,-5.034371E-1,-1.6451426E1,-1.5959766E1,-1.4773529E1,-1.6065931E1,-4.8379925E-1,-1.5041946E1,-1.6332382E1,-1.6962618E1,6.0827823E0,2.6240574E1,-3.8787007E-1,-7.852765E0,3.0152435E0,9.166447E0,2.05654E1,9.877735E0,2.7132706E1,1.6013926E1,2.2973171E1,3.610275E1,3.1506866E-1,1.5128822E1,-2.6521766E0,-5.605616E0,2.156336E1,-5.91485E0,4.7978172E1,2.6953026E1,3.1862152E2,4.5399127E2,7.2969705E-1,1.2222141E0,1.2878702E2,1.8134077E2,2.7458998E1,1.558114E0,-1.5656256E1,-4.9637643E-1,-1.5236727E1,-1.3275682E1,-8.990734E0,-1.4355E1,-4.621129E-1,-1.47579775E1,-1.3315869E1,-9.990854E0,-3.7718424E-1,-1.4652905E1,-4.9123636E-1,-3.762479E-1,-1.623547E1,-1.6567932E1,-5.030173E-1,-1.564892E1,-1.25417E1,-1.5561538E1,-1.5959915E1,-5.080681E-1,-1.5176833E1,-4.016956E-1,-4.7854725E-1,-4.9491414E-1,-5.174132E-1,-4.9971512E-1,-3.0647962E0,1.0223098E1,2.9557558E1,2.1221922E1,8.495003E0,-3.5587041E0,-1.2002654E1,-3.9112785E0,4.601216E0,4.2302713E-1,7.451542E0,1.3545017E1,1.5882789E1,2.6253511E1,5.3315363E0,1.3897299E1,8.8384E-1,7.1721244E-1,1.2655816E1,1.8511547E1,9.595692E-1,1.9329842E1,4.1340004E1,8.441528E-1,5.190326E-1,4.155106E-1,-1.2086779E-1,-2.270496E0,-2.04804E-1,-5.184883E0,1.0014474E0,1.3625473E1,-8.634883E0,6.640807E-2,1.2389863E0,1.5962404E0,1.7504208E1,3.4651875E1,8.4535E0,3.3371503E2,4.652313E2,4.3888248E2,1.3883319E2,1.010591E2,2.1691412E2,1.6406023E2,2.1923878E1,3.396557E1,-4.7139767E-1,-1.4913283E1,-4.618166E-1,-3.9504814E-1,-3.1496415E-1,-1.4364845E1,-1.1582341E1,-5.0885897E0,-1.5191633E1,-1.2674385E1,-4.519854E-1,-1.3803229E1,-1.4504109E1,-1.2682091E1,-1.4202847E-1,-1.1595693E1,-4.4555473E-1,-3.7522444E-1,-4.64182E-1,-4.9897113E-1,-5.108835E-1,-1.6359907E1,-4.7715333E-1,-1.5185422E1,-4.126738E-1,-1.1449916E1,-1.4771489E1,-1.595263E1,-1.6155958E1,-4.6919262E-1,-4.6375838E-1,-4.361843E-1,6.081043E-2,-4.890587E0,1.841825E1,6.9366603E0,1.0886413E0,2.726518E1,7.9639506E-1,5.388181E-1,3.7763884E0,1.6275326E1,-7.067652E0,1.2028289E0,-1.1628478E1,-1.424089E1,-6.328464E0,2.708216E0,3.1903112E0,2.048349E-1,3.8747136E-2,-2.9724168E-2,1.7368403E-1,8.268741E0,3.4366903E-1,4.8750973E-1,3.760166E-1,1.776157E1,9.194872E-1,6.7987627E-1,1.342733E-1,2.0114914E-1,5.6789815E-1,1.1337029E1,4.2271754E-1,3.4386617E-1,1.4772725E1,6.6608787E-1,4.687365E-1,2.175329E1,1.3038577E0,1.1714256E0,-1.2809138E0,-3.0850682E0,-1.3275181E-1,-1.7118785E-1,4.4349965E-1,3.7167403E-1,-1.6376418E-1,-1.0194557E1,2.9306823E-1,2.133251E1,3.0134636E1,1.199449E0,1.100927E1,9.499045E0,1.5189471E1,1.3315925E1,1.2591168E1,1.3888171E1,1.5096207E2,1.2732986E2,2.619054E0,1.05531784E2,5.5571218E0,2.2466415E2,1.8106514E2,1.4580644E2,1.944358E1,9.019874E-1,1.1096686E0,8.571197E-1,-4.0246984E-1,-4.720333E-1,-3.963598E-1,-4.6407193E-1,-3.889345E-1,-3.1364372E-1,-1.8081208E-1,-4.599927E0,-4.7216243E-1,-1.4731088E1,-1.1799576E1,-4.2969477E-1,-3.9207828E-1,-4.4837338E-1,-4.7959027E-1,-3.8031334E-1,-3.3439726E-1,-1.3030744E1,-1.2793376E1,-2.2622864E-1,-4.9706364E-1,-4.8253876E-1,-4.683612E-1,-3.9938822E-1,-3.3626568E-1,-3.7742233E-1,-4.6885988E-1,-4.2931524E-1,-1.5579556E1,-4.902419E-1,-1.5950717E1,-5.0717807E-1,-2.0158243E-1,-1.0499414E-1,6.354704E-1,3.0149722E-1,1.0331148E-1,2.4600407E-1,7.732987E-1,9.034064E-1,-4.2862877E-2,2.284128E-1,6.6043264E-1,3.3210132E-1,-2.8651598E-1,-1.3112286E-1,-1.0003066E-1,2.3629394E-1,-3.7124607E-1,-2.9530352E-1,-3.962192E-1,-4.4522464E-1,-2.368205E-1,9.181795E-2,-4.6238866E-2,2.3758009E-1,1.5980065E-1,3.0631213E-2,2.2298755E-1,2.7222493E-1,6.57583E-1,4.3714052E-1,2.9734358E-1,3.8075152E-1,5.019017E-1,3.8199276E-1,7.0978284E-1,5.9224975E-1,-1.969072E-3,-5.359936E-2,-5.903429E-2,-1.03313744E-1,-2.758318E-1,-3.3382887E-1,6.8473923E-1,5.920885E-1,1.0229894E0,7.8108853E-1,3.9366586E0,4.7225714E0,3.2899835E0,3.9308047E0,3.3929062E0,2.9773824E0,7.280891E0,6.343257E0,4.744848E0,5.6565986E0,3.8259952E0,4.569609E0,5.548586E-1,6.466273E-1,-1.13268405E-1,-1.5198094E-1,-4.328418E-1,-4.6735242E-1,-3.1821045E-1,-3.7551168E-1,-3.6270022E-1,-4.09996E-1,-3.4284896E-1,-4.0998772E-1,-4.8177555E-1,-4.5496854E-1,-4.2316473E-1,-4.8036826E-1],"categories":[],"categories_nodes":[],"categories_segments":[],"categories_sizes":[],"default_left":[0,0,0,0,0,0,0,0,0,0,0,0,0,0,0,0,0,0,0,0,0,0,0,0,0,0,0,0,0,0,0,0,0,0,0,0,0,0,0,0,0,0,0,0,0,0,0,0,0,0,0,0,0,0,0,0,0,0,0,0,0,0,0,0,0,0,0,0,0,0,0,0,0,0,0,0,0,0,0,0,0,0,0,0,0,0,0,0,0,0,0,0,0,0,0,0,0,0,0,0,0,0,0,0,0,0,0,0,0,0,0,0,0,0,0,0,0,0,0,0,0,0,0,0,0,0,0,0,0,0,0,0,0,0,0,0,0,0,0,0,0,0,0,0,0,0,0,0,0,0,0,0,0,0,0,0,0,0,0,0,0,0,0,0,0,0,0,0,0,0,0,0,0,0,0,0,0,0,0,0,0,0,0,0,0,0,0,0,0,0,0,0,0,0,0,0,0,0,0,0,0,0,0,0,0,0,0,0,0,0,0,0,0,0,0,0,0,0,0,0,0,0,0,0,0,0,0,0,0,0,0,0,0,0,0,0,0,0,0,0,0,0,0,0,0,0,0,0,0,0,0,0,0,0,0,0,0,0,0,0,0,0,0,0,0,0,0,0,0,0,0,0,0,0,0,0,0,0,0,0,0,0,0,0,0,0,0,0,0,0,0,0,0,0,0,0,0,0,0,0,0,0,0,0,0,0,0,0,0,0,0,0,0,0,0,0,0,0,0,0,0,0,0,0,0,0,0,0,0,0,0,0,0,0,0,0,0,0,0,0,0,0,0,0,0,0,0,0,0,0,0,0,0,0,0,0,0,0,0,0,0,0,0,0,0,0,0,0,0,0,0,0,0,0,0,0,0],"id":0,"left_children":[1,3,5,7,9,11,13,15,17,19,21,23,25,27,29,31,33,35,37,39,41,43,45,47,49,51,53,-1,55,57,59,61,63,65,67,69,71,73,75,77,79,81,83,85,87,89,91,93,95,97,99,-1,-1,101,103,105,-1,107,109,111,113,-1,115,117,119,121,123,125,127,129,131,133,135,137,139,141,143,-1,145,147,149,151,153,155,157,159,161,-1,-1,163,165,167,-1,169,-1,171,173,175,177,-1,179,181,183,-1,185,-1,-1,187,189,-1,191,193,195,197,-1,199,-1,-1,-1,-1,-1,201,203,205,207,209,211,213,215,217,219,221,223,225,227,229,231,-1,-1,233,235,-1,237,239,-1,-1,-1,-1,241,-1,243,-1,245,247,-1,-1,-1,249,251,-1,253,255,257,259,261,263,265,267,269,-1,271,-1,-1,-1,273,275,277,279,281,-1,283,285,287,-1,289,-1,-1,-1,-1,-1,291,-1,293,-1,295,297,299,301,-1,-1,-1,-1,303,305,307,-1,309,-1,-1,311,313,315,317,319,321,323,325,327,-1,-1,-1,-1,329,-1,-1,-1,331,-1,-1,-1,-1,-1,333,-1,-1,335,-1,-1,337,-1,-1,339,341,-1,-1,-1,-1,-1,343,-1,345,347,-1,-1,-1,-1,-1,-1,-1,349,351,-1,353,-1,355,357,359,361,-1,-1,-1,-1,-1,-1,-1,-1,-1,-1,363,-1,365,367,-1,-1,-1,-1,-1,-1,369,371,-1,-1,-1,-1,-1,-1,-1,-1,-1,373,-1,375,-1,-1,-1,-1,-1,-1,-1,-1,-1,-1,-1,-1,-1,-1,-1,-1,-1,-1,-1,-1,-1,-1,-1,-1,-1,-1,-1,-1,-1,-1,-1,-1,-1,-1,-1,-1,-1,-1,-1,-1,-1,-1,-1,-1,-1,-1,-1,-1,-1,-1,-1,-1,-1,-1,-1,-1,-1,-1,-1,-1,-1,-1,-1,-1,-1,-1,-1,-1,-1,-1,-1,-1,-1,-1,-1],"loss_changes":[6.9986894E5,2.8115042E6,9.9459375E2,5.5055652E4,1.7436415E6,2.603828E2,9.115625E1,3.348649E4,5.1995E3,1.2312792E4,1.0268675E6,2.0303906E2,1.3648047E2,3.7773438E0,9.13125E1,5.9964844E1,1.80885E4,1.7707295E3,1.1950469E3,3.3983586E3,9.060873E3,8.795165E5,3.261455E5,3.4570312E1,2.8358594E2,5.062439E0,1.2337695E2,0E0,6.765625E0,8.671875E0,1.27359375E2,5.9921875E0,1.265625E1,6.119247E3,1.2467041E4,4.3035254E2,1.0446367E3,6.425205E2,9.926836E2,4.5766846E1,8.797632E1,4.1231543E3,2.728418E3,1.4958E5,5.839668E2,6.2567E4,1.5874629E3,3.859375E0,3.5039062E1,6.535781E2,4.4804688E0,0E0,0E0,1.1888867E2,1.8038086E1,3.599707E1,0E0,2.1875E-1,1.421875E1,2.2388477E2,1.29140625E1,0E0,3.5810547E0,1.0859375E0,8.652344E-1,2.3117134E3,3.2175E2,1.1351034E4,8.225541E3,8.585408E1,1.8468701E2,5.245879E2,3.0817236E2,4.0273926E1,1.7075732E2,4.4870947E2,3.9894922E2,0E0,2.5065186E1,1.3997223E1,6.670685E0,9.2980615E2,2.663702E2,2.8327734E2,1.4443467E3,8.455875E3,5.865E2,0E0,0E0,1.23736875E4,2.78895E4,8.516758E2,0E0,9.453125E-1,0E0,8.448242E0,3.8378662E1,3.0122925E2,1.302832E2,0E0,4.4521484E0,1.9547852E1,1.4131348E2,0E0,1.5041992E1,0E0,0E0,2.0558594E1,9.140625E0,0E0,1.3642578E0,4.0984863E1,2.4236328E1,5.7773438E0,0E0,1.0390625E0,0E0,0E0,0E0,0E0,0E0,1.7711343E2,1.1276362E3,1.6905078E2,1.2987646E2,3.8892568E3,4.9631055E3,2.0094922E2,4.128835E3,3.9651794E1,9.8789625E0,2.2577393E1,3.499121E1,6.4017334E1,1.2995557E2,7.996231E0,1.1092029E2,0E0,0E0,1.1259766E1,1.5877783E2,0E0,8.274902E1,4.013672E0,0E0,0E0,0E0,0E0,1.7265839E1,0E0,3.4921875E0,0E0,4.0545654E0,4.251056E1,0E0,0E0,0E0,2.616184E2,2.460127E2,0E0,5.592375E3,5.56725E3,1.202625E3,4.3855625E3,6.2758594E2,3.22775E3,9.329E3,2.5194678E2,1.6245801E2,0E0,8.51416E0,0E0,0E0,0E0,7.8305664E0,2.4370117E1,4.167816E0,1.0763672E1,4.1867188E1,0E0,1.9621582E0,2.4922363E1,7.3776855E0,0E0,6.018213E1,0E0,0E0,0E0,0E0,0E0,3.9453125E-1,0E0,1.18125E1,0E0,1.1203613E0,7.4174805E0,3.546875E0,1.1412109E1,0E0,0E0,0E0,0E0,3.437735E1,2.725503E2,1.3099487E2,0E0,2.4851074E1,0E0,0E0,1.3192178E3,1.1894971E3,1.1432832E3,3.8162385E3,2.7636328E2,1.694336E1,2.778998E3,1.5289668E3,3.643222E1,0E0,0E0,0E0,0E0,5.7598877E0,0E0,0E0,0E0,8.614111E1,0E0,0E0,0E0,0E0,0E0,8.088379E0,0E0,0E0,1.891687E1,0E0,0E0,1.4034424E1,0E0,0E0,5.96579E0,4.204521E0,0E0,0E0,0E0,0E0,0E0,2.5533447E0,0E0,5.553955E0,8.2771484E1,0E0,0E0,0E0,0E0,0E0,0E0,0E0,1.8052188E3,9.4303125E2,0E0,2.9496094E2,0E0,2.304875E3,2.412875E3,1.5643438E3,1.2043945E1,0E0,0E0,0E0,0E0,0E0,0E0,0E0,0E0,0E0,0E0,2.0021362E0,0E0,3.7407227E0,1.433667E1,0E0,0E0,0E0,0E0,0E0,0E0,5.945801E0,7.856079E0,0E0,0E0,0E0,0E0,0E0,0E0,0E0,0E0,0E0,9.9560547E-1,0E0,4.8398438E0,0E0,0E0,0E0,0E0,0E0,0E0,0E0,0E0,0E0,0E0,0E0,0E0,0E0,0E0,0E0,0E0,0E0,0E0,0E0,0E0,0E0,0E0,0E0,0E0,0E0,0E0,0E0,0E0,0E0,0E0,0E0,0E0,0E0,0E0,0E0,0E0,0E0,0E0,0E0,0E0,0E0,0E0,0E0,0E0,0E0,0E0,0E0,0E0,0E0,0E0,0E0,0E0,0E0,0E0,0E0,0E0,0E0,0E0,0E0,0E0,0E0,0E0,0E0,0E0,0E0,0E0,0E0,0E0,0E0,0E0,0E0,0E0,0E0,0E0,0E0],"parents":[2147483647,0,0,1,1,2,2,3,3,4,4,5,5,6,6,7,7,8,8,9,9,10,10,11,11,12,12,13,13,14,14,15,15,16,16,17,17,18,18,19,19,20,20,21,21,22,22,23,23,24,24,25,25,26,26,28,28,29,29,30,30,31,31,32,32,33,33,34,34,35,35,36,36,37,37,38,38,39,39,40,40,41,41,42,42,43,43,44,44,45,45,46,46,47,47,48,48,49,49,50,50,53,53,54,54,55,55,57,57,58,58,59,59,60,60,62,62,63,63,64,64,65,65,66,66,67,67,68,68,69,69,70,70,71,71,72,72,73,73,74,74,75,75,76,76,78,78,79,79,80,80,81,81,82,82,83,83,84,84,85,85,86,86,89,89,90,90,91,91,93,93,95,95,96,96,97,97,98,98,100,100,101,101,102,102,104,104,107,107,108,108,110,110,111,111,112,112,113,113,115,115,121,121,122,122,123,123,124,124,125,125,126,126,127,127,128,128,129,129,130,130,131,131,132,132,133,133,134,134,135,135,136,136,139,139,140,140,142,142,143,143,148,148,150,150,152,152,153,153,157,157,158,158,160,160,161,161,162,162,163,163,164,164,165,165,166,166,167,167,168,168,170,170,174,174,175,175,176,176,177,177,178,178,180,180,181,181,182,182,184,184,190,190,192,192,194,194,195,195,196,196,197,197,202,202,203,203,204,204,206,206,209,209,210,210,211,211,212,212,213,213,214,214,215,215,216,216,217,217,222,222,226,226,232,232,235,235,238,238,241,241,242,242,248,248,250,250,251,251,259,259,260,260,262,262,264,264,265,265,266,266,267,267,278,278,280,280,281,281,288,288,289,289,299,299,301,301],"right_children":[2,4,6,8,10,12,14,16,18,20,22,24,26,28,30,32,34,36,38,40,42,44,46,48,50,52,54,-1,56,58,60,62,64,66,68,70,72,74,76,78,80,82,84,86,88,90,92,94,96,98,100,-1,-1,102,104,106,-1,108,110,112,114,-1,116,118,120,122,124,126,128,130,132,134,136,138,140,142,144,-1,146,148,150,152,154,156,158,160,162,-1,-1,164,166,168,-1,170,-1,172,174,176,178,-1,180,182,184,-1,186,-1,-1,188,190,-1,192,194,196,198,-1,200,-1,-1,-1,-1,-1,202,204,206,208,210,212,214,216,218,220,222,224,226,228,230,232,-1,-1,234,236,-1,238,240,-1,-1,-1,-1,242,-1,244,-1,246,248,-1,-1,-1,250,252,-1,254,256,258,260,262,264,266,268,270,-1,272,-1,-1,-1,274,276,278,280,282,-1,284,286,288,-1,290,-1,-1,-1,-1,-1,292,-1,294,-1,296,298,300,302,-1,-1,-1,-1,304,306,308,-1,310,-1,-1,312,314,316,318,320,322,324,326,328,-1,-1,-1,-1,330,-1,-1,-1,332,-1,-1,-1,-1,-1,334,-1,-1,336,-1,-1,338,-1,-1,340,342,-1,-1,-1,-1,-1,344,-1,346,348,-1,-1,-1,-1,-1,-1,-1,350,352,-1,354,-1,356,358,360,362,-1,-1,-1,-1,-1,-1,-1,-1,-1,-1,364,-1,366,368,-1,-1,-1,-1,-1,-1,370,372,-1,-1,-1,-1,-1,-1,-1,-1,-1,374,-1,376,-1,-1,-1,-1,-1,-1,-1,-1,-1,-1,-1,-1,-1,-1,-1,-1,-1,-1,-1,-1,-1,-1,-1,-1,-1,-1,-1,-1,-1,-1,-1,-1,-1,-1,-1,-1,-1,-1,-1,-1,-1,-1,-1,-1,-1,-1,-1,-1,-1,-1,-1,-1,-1,-1,-1,-1,-1,-1,-1,-1,-1,-1,-1,-1,-1,-1,-1,-1,-1,-1,-1,-1,-1,-1,-1],"split_conditions":[5E0,4E0,6E0,1.28E2,2E0,2.048E3,3E0,1E0,1.024E3,4E0,1.6E1,3E0,4.6889677E0,1E1,2E0,2E0,2.0834829E-1,4E0,2.048E3,1.6E1,3.2E1,4E0,4E0,1.024E3,4E0,1.1E1,1.2E1,-5.0982714E-1,1.1E1,6.4E1,4E0,1.6E1,4.3456383E0,8E0,4E0,2.56E2,5.9650266E-1,1.5703602E0,2.56E2,6E0,6.4E1,1.4503268E0,8.783238E-1,4E0,4E0,4E0,3.6866899E0,5.3975554E0,6.4E1,1.6E1,1.024E3,-2.2408676E-1,-2.8695944E-1,6.4E1,8.361876E0,1.4878193E1,-5.034371E-1,4E0,4E0,1.6E1,1.9021017E1,-4.8379925E-1,2.048E3,4E0,1.024E3,4E0,1.1E1,1.6E1,1E0,1.8640459E0,5.12E2,8E0,2.56E2,1.0160179E0,2.56E2,2.5800633E0,1.0807918E1,3.1506866E-1,1.1E1,6E0,6E0,2.56E2,1.6E1,6.4E1,6.4E1,6E0,1.6949975E0,7.2969705E-1,1.2222141E0,6.4E1,3.2E1,4E0,1.558114E0,4.276485E0,-4.9637643E-1,2.5347828E1,2E0,4E0,4E0,-4.621129E-1,6.4E1,1.6E1,2E0,-3.7718424E-1,2.0950167E1,-4.9123636E-1,-3.762479E-1,1.6E1,1.6E1,-5.030173E-1,9E0,4E0,3.2E1,1.024E3,-5.080681E-1,6.4E1,-4.016956E-1,-4.7854725E-1,-4.9491414E-1,-5.174132E-1,-4.9971512E-1,1.3889824E-1,1.6E1,1.6E1,1.6E1,4E0,4E0,1.3200657E1,6.4E1,5.12E2,2E0,1E1,1E1,6E0,1.1E1,1.2068835E0,1.621735E0,8.8384E-1,7.1721244E-1,3.6295533E0,1E1,9.595692E-1,1E1,4E0,8.441528E-1,5.190326E-1,4.155106E-1,-1.2086779E-1,3.2E1,-2.04804E-1,1.1E1,1.0014474E0,1.1E1,3.2603798E0,6.640807E-2,1.2389863E0,1.5962404E0,6E0,1.024E3,8.4535E0,1.1E1,1.1E1,1.2E1,3.2E1,6E0,6E0,6.4E1,2.158237E0,1.28E2,-4.7139767E-1,4.556431E0,-4.618166E-1,-3.9504814E-1,-3.1496415E-1,1.2E1,2E0,6E0,2E0,6.4E1,-4.519854E-1,1.1E1,3E0,1E1,-1.4202847E-1,2.0950167E1,-4.4555473E-1,-3.7522444E-1,-4.64182E-1,-4.9897113E-1,-5.108835E-1,1.024E3,-4.7715333E-1,2.048E3,-4.126738E-1,4.6889677E0,4E0,6.4E1,2.8191016E0,-4.6919262E-1,-4.6375838E-1,-4.361843E-1,6.081043E-2,3.2E1,1.3889824E-1,6E0,1.0886413E0,6.4E1,7.9639506E-1,5.388181E-1,2E0,1.1499829E0,2E0,1E0,1.024E3,4E0,8E0,1.024E3,5.042948E-1,2.048349E-1,3.8747136E-2,-2.9724168E-2,1.7368403E-1,2.56E2,3.4366903E-1,4.8750973E-1,3.760166E-1,1.1E1,9.194872E-1,6.7987627E-1,1.342733E-1,2.0114914E-1,5.6789815E-1,1E1,4.2271754E-1,3.4386617E-1,7.8448873E0,6.6608787E-1,4.687365E-1,1.0807918E1,1.3038577E0,1.1714256E0,1.1E1,1.1E1,-1.3275181E-1,-1.7118785E-1,4.4349965E-1,3.7167403E-1,-1.6376418E-1,5.471283E0,2.9306823E-1,1.024E3,1.8192434E0,1.199449E0,1.100927E1,9.499045E0,1.5189471E1,1.3315925E1,1.2591168E1,1.3888171E1,6E0,6E0,2.619054E0,1.1E1,5.5571218E0,1.1E1,6E0,6E0,1.0297548E0,9.019874E-1,1.1096686E0,8.571197E-1,-4.0246984E-1,-4.720333E-1,-3.963598E-1,-4.6407193E-1,-3.889345E-1,-3.1364372E-1,-1.8081208E-1,1.1E1,-4.7216243E-1,6.4E1,3.2E1,-4.2969477E-1,-3.9207828E-1,-4.4837338E-1,-4.7959027E-1,-3.8031334E-1,-3.3439726E-1,2E0,3E0,-2.2622864E-1,-4.9706364E-1,-4.8253876E-1,-4.683612E-1,-3.9938822E-1,-3.3626568E-1,-3.7742233E-1,-4.6885988E-1,-4.2931524E-1,4E0,-4.902419E-1,2.4314898E-1,-5.0717807E-1,-2.0158243E-1,-1.0499414E-1,6.354704E-1,3.0149722E-1,1.0331148E-1,2.4600407E-1,7.732987E-1,9.034064E-1,-4.2862877E-2,2.284128E-1,6.6043264E-1,3.3210132E-1,-2.8651598E-1,-1.3112286E-1,-1.0003066E-1,2.3629394E-1,-3.7124607E-1,-2.9530352E-1,-3.962192E-1,-4.4522464E-1,-2.368205E-1,9.181795E-2,-4.6238866E-2,2.3758009E-1,1.5980065E-1,3.0631213E-2,2.2298755E-1,2.7222493E-1,6.57583E-1,4.3714052E-1,2.9734358E-1,3.8075152E-1,5.019017E-1,3.8199276E-1,7.0978284E-1,5.9224975E-1,-1.969072E-3,-5.359936E-2,-5.903429E-2,-1.03313744E-1,-2.758318E-1,-3.3382887E-1,6.8473923E-1,5.920885E-1,1.0229894E0,7.8108853E-1,3.9366586E0,4.7225714E0,3.2899835E0,3.9308047E0,3.3929062E0,2.9773824E0,7.280891E0,6.343257E0,4.744848E0,5.6565986E0,3.8259952E0,4.569609E0,5.548586E-1,6.466273E-1,-1.13268405E-1,-1.5198094E-1,-4.328418E-1,-4.6735242E-1,-3.1821045E-1,-3.7551168E-1,-3.6270022E-1,-4.09996E-1,-3.4284896E-1,-4.0998772E-1,-4.8177555E-1,-4.5496854E-1,-4.2316473E-1,-4.8036826E-1],"split_indices":[0,0,0,5,3,4,1,1,4,1,5,1,6,2,3,3,6,3,4,5,5,1,1,4,1,2,2,0,2,5,1,5,6,3,1,5,6,6,5,2,5,6,6,3,3,3,6,6,5,5,4,0,0,5,6,6,0,1,1,5,6,0,4,3,4,3,2,5,0,6,4,3,5,6,5,6,6,0,2,2,2,4,5,5,5,2,6,0,0,5,5,3,0,6,0,6,3,3,3,0,5,5,3,0,6,0,0,5,5,0,2,3,5,4,0,5,0,0,0,0,0,6,5,5,5,3,3,6,5,4,3,2,2,2,2,6,6,0,0,6,2,0,2,3,0,0,0,0,5,0,2,0,2,6,0,0,0,2,4,0,2,2,2,5,2,2,5,6,5,0,6,0,0,0,2,3,2,3,5,0,2,1,2,0,6,0,0,0,0,0,4,0,4,0,6,3,5,6,0,0,0,0,5,6,2,0,5,0,0,3,6,3,0,4,3,3,4,6,0,0,0,0,4,0,0,0,2,0,0,0,0,0,2,0,0,6,0,0,6,0,0,2,2,0,0,0,0,0,6,0,4,6,0,0,0,0,0,0,0,2,2,0,2,0,2,2,2,6,0,0,0,0,0,0,0,0,0,0,2,0,5,5,0,0,0,0,0,0,3,1,0,0,0,0,0,0,0,0,0,3,0,6,0,0,0,0,0,0,0,0,0,0,0,0,0,0,0,0,0,0,0,0,0,0,0,0,0,0,0,0,0,0,0,0,0,0,0,0,0,0,0,0,0,0,0,0,0,0,0,0,0,0,0,0,0,0,0,0,0,0,0,0,0,0,0,0,0,0,0,0,0,0,0,0,0,0,0],"split_type":[0,0,0,0,0,0,0,0,0,0,0,0,0,0,0,0,0,0,0,0,0,0,0,0,0,0,0,0,0,0,0,0,0,0,0,0,0,0,0,0,0,0,0,0,0,0,0,0,0,0,0,0,0,0,0,0,0,0,0,0,0,0,0,0,0,0,0,0,0,0,0,0,0,0,0,0,0,0,0,0,0,0,0,0,0,0,0,0,0,0,0,0,0,0,0,0,0,0,0,0,0,0,0,0,0,0,0,0,0,0,0,0,0,0,0,0,0,0,0,0,0,0,0,0,0,0,0,0,0,0,0,0,0,0,0,0,0,0,0,0,0,0,0,0,0,0,0,0,0,0,0,0,0,0,0,0,0,0,0,0,0,0,0,0,0,0,0,0,0,0,0,0,0,0,0,0,0,0,0,0,0,0,0,0,0,0,0,0,0,0,0,0,0,0,0,0,0,0,0,0,0,0,0,0,0,0,0,0,0,0,0,0,0,0,0,0,0,0,0,0,0,0,0,0,0,0,0,0,0,0,0,0,0,0,0,0,0,0,0,0,0,0,0,0,0,0,0,0,0,0,0,0,0,0,0,0,0,0,0,0,0,0,0,0,0,0,0,0,0,0,0,0,0,0,0,0,0,0,0,0,0,0,0,0,0,0,0,0,0,0,0,0,0,0,0,0,0,0,0,0,0,0,0,0,0,0,0,0,0,0,0,0,0,0,0,0,0,0,0,0,0,0,0,0,0,0,0,0,0,0,0,0,0,0,0,0,0,0,0,0,0,0,0,0,0,0,0,0,0,0,0,0,0,0,0,0,0,0,0,0,0,0,0,0,0,0,0,0,0,0,0,0,0,0,0,0,0],"sum_hessian":[3.094E3,1.635E3,1.459E3,1.366E3,2.69E2,5.74E2,8.85E2,1.231E3,1.35E2,1.09E2,1.6E2,4.66E2,1.08E2,2.24E2,6.61E2,2.44E2,9.87E2,8.3E1,5.2E1,5.8E1,5.1E1,4.2E1,1.18E2,2.18E2,2.48E2,7E0,1.01E2,7.7E1,1.47E2,3.26E2,3.35E2,5.1E1,1.93E2,8.1E1,9.06E2,4.6E1,3.7E1,2.8E1,2.4E1,1.4E1,4.4E1,2.2E1,2.9E1,3.3E1,9E0,9.1E1,2.7E1,1.63E2,5.5E1,1.26E2,1.22E2,3E0,4E0,4.9E1,5.2E1,5.6E1,9.1E1,2.46E2,8E1,1.3E2,2.05E2,1.3E1,3.8E1,1.11E2,8.2E1,6.1E1,2E1,4.03E2,5.03E2,2.1E1,2.5E1,2E1,1.7E1,7E0,2.1E1,1.4E1,1E1,3E0,1.1E1,2.8E1,1.6E1,1E1,1.2E1,9E0,2E1,1.7E1,1.6E1,5E0,4E0,4.5E1,4.6E1,2.4E1,3E0,1.5E2,1.3E1,4.1E1,1.4E1,3E1,9.6E1,9E1,3.2E1,3.2E1,1.7E1,6E0,4.6E1,5.3E1,3E0,8.7E1,1.59E2,2.2E1,5.8E1,3.4E1,9.6E1,1.83E2,2.2E1,3.5E1,3E0,3.4E1,7.7E1,4.2E1,4E1,1.9E1,4.2E1,1.2E1,8E0,1.06E2,2.97E2,2.45E2,2.58E2,1.3E1,8E0,1.8E1,7E0,1.1E1,9E0,8E0,9E0,4E0,3E0,9E0,1.2E1,4E0,1E1,6E0,4E0,4E0,7E0,6E0,2.2E1,4E0,1.2E1,4E0,6E0,9E0,3E0,4E0,5E0,9E0,1.1E1,5E0,1.2E1,9E0,7E0,3.3E1,1.2E1,1.5E1,3.1E1,1.3E1,1.1E1,1.39E2,1.1E1,3.8E1,3E0,4E0,1E1,1.8E1,1.2E1,6.4E1,3.2E1,2.4E1,8E0,1.1E1,2.1E1,4E0,1.3E1,4.2E1,4E0,3E1,5.7E1,4.9E1,1.1E2,3.7E1,2.1E1,1.6E1,1.8E1,3.2E1,6.4E1,1.13E2,7E1,2.4E1,1.1E1,5E0,1.4E1,1.2E1,3E1,3E0,9E0,3E0,5E0,6.6E1,4E1,1.71E2,1.26E2,2.1E2,3.5E1,1.89E2,6.9E1,8E0,5E0,5E0,3E0,6E0,1.2E1,4E0,3E0,4E0,7E0,4E0,5E0,5E0,3E0,3E0,6E0,4E0,5E0,6E0,6E0,4E0,6E0,3E0,3E0,1E1,1.2E1,5E0,7E0,3E0,3E0,3E0,6E0,3E0,6E0,6E0,5E0,4E0,8E0,3E0,6E0,4E0,3E0,1.6E1,1.7E1,3E0,9E0,3E0,1.2E1,1.6E1,1.5E1,1E1,3E0,7E0,4E0,4E0,7E0,5E0,5E0,8E0,1E1,4E0,8E0,2.9E1,3.5E1,2.1E1,1.1E1,5E0,3E0,6E0,5E0,4E0,1.7E1,1E1,3E0,6.2E1,4.8E1,1.7E1,4E0,1.5E1,3E0,1.1E1,2.1E1,3.3E1,3.1E1,8.9E1,2.4E1,6E0,8E0,9E0,3E0,8E0,2.2E1,6E0,3E0,2.8E1,3.8E1,1.9E1,2.1E1,8.9E1,8.2E1,7.5E1,5.1E1,1.48E2,6.2E1,1.3E1,2.2E1,1.62E2,2.7E1,3.8E1,3.1E1,4E0,4E0,6E0,6E0,3E0,4E0,3E0,3E0,3E0,3E0,3E0,3E0,3E0,7E0,3E0,9E0,3E0,3E0,3E0,3E0,3E0,3E0,4E0,1.2E1,3E0,1.4E1,4E0,5E0,5E0,7E0,4E0,1.2E1,4E0,1.1E1,7E0,3E0,3E0,5E0,2.6E1,9E0,8E0,1.3E1,7E0,1E1,4E0,6E0,1.5E1,1.8E1,3E0,8.6E1],"tree_param":{"num_deleted":"0","num_feature":"7","num_nodes":"377","size_leaf_vector":"1"}},{"base_weights":[-1.3182211E-1,1.3119778E1,-1.5037668E1,-3.6311102E0,9.982014E1,-1.4051944E1,-1.5666273E1,-5.6345577E0,1.4722334E1,1.0188474E1,1.626141E2,-1.4339681E1,-1.2694406E1,-1.618751E1,-1.5500077E1,-1.5839969E1,-3.1870573E0,1.0217562E1,2.2224854E1,6.307231E-1,2.0844948E1,2.9458112E2,1.17475006E2,-1.50489025E1,-1.3678871E1,-8.433693E0,-1.3013087E1,-4.9402937E-1,-1.603967E1,-1.5834825E1,-1.5175262E1,-1.4851355E1,-1.6097454E1,1.2480233E1,-4.2706614E0,1.861162E1,7.6307707E0,1.86021E1,2.6620813E1,1.3729501E1,-3.5369701E0,4.1537285E1,1.3209902E1,3.7114798E2,3.0720463E1,1.4549324E2,2.8393341E1,-1.530069E1,-1.4311013E1,-1.4440823E1,-1.2198104E1,-2.1738648E-1,-2.7837214E-1,-1.2046071E1,-1.3914885E1,-1.5640573E1,-4.8844895E-1,-1.5947319E1,-1.5491547E1,-1.4407865E1,-1.5615644E1,-4.6904016E-1,-1.4569283E1,-1.5816747E1,-4.945098E-1,7.575057E0,2.5271324E1,-1.9773471E-1,-7.531866E0,1.2500083E1,2.6048014E1,3.6730328E0,1.0814266E1,2.7753305E1,1.5535182E1,3.2612316E1,2.1097696E1,3.05648E-1,1.4676079E1,-2.628541E0,-5.473201E0,3.692714E1,1.5875067E0,5.566086E0,3.779536E1,3.1478513E2,1.2930358E1,7.0784986E-1,1.1856391E0,1.2277033E2,1.7205681E2,2.5746359E1,1.3243942E0,-4.568743E-1,-1.6017925E1,-1.480319E1,-1.2884522E1,-1.3611546E1,-1.4703962E1,-1.0243841E1,-4.3519282E-1,-1.3075348E1,-9.752113E0,-3.6588755E-1,-1.4155062E1,-4.7521612E-1,-3.6499798E-1,-4.8372957E-1,-4.740849E-1,-4.8761564E-1,-1.5158497E1,-1.2198994E1,-1.5095753E1,-1.552621E1,-4.9339002E-1,-4.509974E-1,-1.4065914E1,-4.6171302E-1,-4.8005E-1,-1.7117547E0,1.0415158E1,2.852481E1,2.0111038E1,8.250106E0,-3.215315E0,-8.708221E0,5.568841E0,1.6174151E-1,1.6534445E1,9.049041E-1,6.2449074E-1,1.8395054E0,6.6598716E0,7.570406E0,1.4855583E1,6.845334E-1,1.0260934E0,1.2277325E1,1.795799E1,2.7628218E1,1.2365669E0,1.689886E1,8.0731934E-1,5.035004E-1,4.0306306E-1,-4.1401234E0,-2.0727E0,-1.9867523E-1,-4.9973316E0,8.786881E-1,4.013965E1,-6.9836106E0,1.2176648E1,1.2916187E0,9.3318605E-1,8.254394E0,3.277496E2,1.3435854E2,9.7197105E1,6.365509E0,1.572745E2,1.8962357E1,3.25006E1,-5.0179833E-1,-4.6095696E-1,-4.527023E-1,-1.419144E1,-1.1152379E1,-1.4371848E1,-1.0907301E1,-4.587686E-1,-4.318307E-1,-4.4814616E-1,-4.8580995E0,-1.2197198E1,-1.4179876E1,-1.2365398E1,-4.4855636E-1,-8.31262E0,-4.2945158E-1,-3.6003935E-1,-4.6249175E-1,-1.4725129E1,-4.0023506E-1,-1.1042028E1,-1.4311202E1,-1.5484169E1,-1.5704733E1,-4.5609915E-1,-4.4797188E-1,-1.3713744E1,1.4804819E0,-1.6673121E-1,1.6386368E1,7.4198074E0,1.0560905E0,2.5967178E1,7.725826E-1,4.7403434E-1,-1.2927418E0,1.1509619E1,-6.4998555E0,1.2813634E0,-1.163455E1,-5.565735E0,1.1597137E1,-4.598553E0,4.5679215E-1,5.456669E-1,9.292032E-1,1.4971088E-1,4.543299E0,3.0955106E-1,1.5028033E-1,8.200896E0,7.2277194E-1,1.2699444E1,4.1006765E-1,3.3357078E-1,1.4331513E1,6.461384E-1,6.8919927E-1,9.308539E-1,4.1481376E-1,5.741249E-1,-1.0255457E-1,-1.4479497E-1,-1.18797E0,-2.9464648E0,-1.2809464E-1,-1.6373363E-1,1.3657527E0,1.0791652E0,-2.19863E-2,-9.643364E0,7.413067E0,1.6442194E1,1.0717489E1,9.185529E0,1.4454138E2,1.2344948E2,2.5389736E0,1.01675964E2,1.7312466E2,1.4131288E2,1.798406E1,6.5383583E-1,3.4842987E1,8.3147013E-1,-4.3700042E-1,-3.958324E-1,-3.68681E-1,-3.0738536E-1,-3.9576983E-1,-4.5095566E-1,-3.707417E-1,-9.916389E0,-1.7653073E-1,-4.498763E0,-1.14410715E1,-4.1739392E-1,-4.6522653E-1,-1.281197E1,-3.2439038E-1,-1.2765225E1,-3.2321933E-1,-6.230336E0,-4.5343602E-1,-3.8743648E-1,-3.2199436E-1,-3.6613727E-1,-4.5462304E-1,-4.1573763E-1,-1.5120946E1,-4.7452992E-1,-4.6586135E-1,-4.9347627E-1,-3.6574402E-1,-4.3908823E-1,5.3688645E-2,3.3996027E-2,6.164275E-1,1.15281284E-1,1.1415205E-1,2.5089875E-1,7.158671E-1,8.14801E-1,-7.580712E-2,1.0356453E-2,2.2742203E-1,4.6299773E-1,-2.78063E-1,-1.1552486E-1,-9.2806794E-2,2.2915965E-1,-3.6485517E-1,-2.9469198E-1,-2.9076505E-1,-6.0111657E-2,-1.18424624E-1,7.2101533E-1,-2.2999139E-1,-4.537503E-2,1.5196617E-2,7.31659E-2,1.0798579E-1,1.5646349E-1,2.2777054E-1,2.8505725E-1,3.3815303E-1,4.4810125E-1,4.8689467E-1,3.7057105E-1,-6.2122326E-3,-5.1993646E-2,-5.7269145E-2,-9.960513E-2,-2.619E-1,-3.238473E-1,3.9086255E-1,8.6505614E-2,2.843054E-1,5.81859E-1,3.783343E0,4.5630245E0,3.191612E0,3.818834E0,3.291373E0,2.9075842E0,4.6030464E0,5.483894E0,3.6974475E0,4.4326453E0,5.868031E-1,4.783561E-1,1.1103423E0,9.325432E-1,-3.219402E-1,-2.8425288E-1,-1.09881654E-1,-1.4680064E-1,-3.1089523E-1,-3.635693E-1,-3.1274834E-1,-4.5369622E-1,-3.519852E-1,-4.0285793E-1,-1.4623414E-1,-2.2596838E-1,-4.672347E-1,-4.419787E-1],"categories":[],"categories_nodes":[],"categories_segments":[],"categories_sizes":[],"default_left":[0,0,0,0,0,0,0,0,0,0,0,0,0,0,0,0,0,0,0,0,0,0,0,0,0,0,0,0,0,0,0,0,0,0,0,0,0,0,0,0,0,0,0,0,0,0,0,0,0,0,0,0,0,0,0,0,0,0,0,0,0,0,0,0,0,0,0,0,0,0,0,0,0,0,0,0,0,0,0,0,0,0,0,0,0,0,0,0,0,0,0,0,0,0,0,0,0,0,0,0,0,0,0,0,0,0,0,0,0,0,0,0,0,0,0,0,0,0,0,0,0,0,0,0,0,0,0,0,0,0,0,0,0,0,0,0,0,0,0,0,0,0,0,0,0,0,0,0,0,0,0,0,0,0,0,0,0,0,0,0,0,0,0,0,0,0,0,0,0,0,0,0,0,0,0,0,0,0,0,0,0,0,0,0,0,0,0,0,0,0,0,0,0,0,0,0,0,0,0,0,0,0,0,0,0,0,0,0,0,0,0,0,0,0,0,0,0,0,0,0,0,0,0,0,0,0,0,0,0,0,0,0,0,0,0,0,0,0,0,0,0,0,0,0,0,0,0,0,0,0,0,0,0,0,0,0,0,0,0,0,0,0,0,0,0,0,0,0,0,0,0,0,0,0,0,0,0,0,0,0,0,0,0,0,0,0,0,0,0,0,0,0,0,0,0,0,0,0,0,0,0,0,0,0,0,0,0,0,0,0,0,0,0,0,0,0,0,0,0,0,0,0,0,0,0,0,0,0,0,0,0,0,0,0,0,0,0,0,0,0,0,0,0,0,0,0,0,0,0,0,0],"id":1,"left_children":[1,3,5,7,9,11,13,15,17,19,21,23,25,27,29,31,33,35,37,39,41,43,45,47,49,51,53,-1,55,57,59,61,63,65,67,69,71,73,75,77,79,81,83,85,87,89,91,93,95,97,99,-1,-1,101,103,105,-1,107,109,111,113,-1,115,117,-1,119,121,123,125,127,129,131,133,135,137,139,141,-1,143,145,147,149,-1,151,153,155,-1,-1,-1,157,159,161,-1,-1,163,165,167,169,171,173,-1,175,177,-1,179,-1,-1,-1,-1,-1,181,183,185,187,-1,-1,189,-1,-1,191,193,195,197,199,201,203,205,-1,207,-1,-1,209,211,213,215,-1,-1,217,219,221,-1,223,-1,-1,-1,225,227,-1,229,-1,231,233,235,-1,-1,-1,237,239,241,-1,243,245,247,-1,-1,-1,249,251,253,255,-1,-1,-1,257,259,261,263,-1,265,-1,-1,-1,267,-1,269,271,273,275,-1,-1,277,279,-1,281,283,-1,285,-1,-1,287,289,291,293,295,297,299,301,-1,-1,303,-1,305,-1,-1,307,-1,309,-1,-1,311,-1,-1,-1,-1,-1,-1,-1,313,315,-1,-1,-1,-1,-1,317,319,321,-1,-1,323,325,-1,327,329,331,333,-1,335,-1,-1,-1,-1,-1,-1,-1,-1,337,-1,339,341,-1,-1,343,-1,345,-1,347,-1,-1,-1,-1,-1,-1,349,-1,-1,-1,-1,-1,-1,-1,-1,-1,-1,-1,-1,-1,-1,-1,-1,-1,-1,-1,-1,-1,-1,-1,-1,-1,-1,-1,-1,-1,-1,-1,-1,-1,-1,-1,-1,-1,-1,-1,-1,-1,-1,-1,-1,-1,-1,-1,-1,-1,-1,-1,-1,-1,-1,-1,-1,-1,-1,-1,-1,-1,-1,-1,-1,-1,-1,-1,-1,-1,-1,-1,-1,-1,-1,-1,-1,-1],"loss_changes":[6.1529856E5,2.3948835E6,9.0321875E2,5.0816656E4,1.5027862E6,2.1852344E2,7.1859375E1,3.1120117E4,4.5912344E3,1.1202452E4,9.3490125E5,2.158125E2,1.3255273E2,3.0546875E0,6.8328125E1,5.586328E1,1.7061906E4,1.841835E3,8.028828E2,3.1683687E3,8.2059375E3,8.0816675E5,2.9198775E5,3.7023438E1,2.708789E2,4.7121887E0,7.683887E1,0E0,7.96875E0,7.2890625E0,1.1134375E2,5.751953E0,1.4871094E1,4.0736953E3,1.2485033E4,9.022988E2,8.1724414E2,7.7748926E2,7.491885E2,4.2980713E1,7.645642E1,7.064629E2,7.136654E3,1.031995E5,5.4938086E2,5.3486E4,1.1496113E3,3.109375E0,3.6052734E1,3.0304688E1,3.7050293E2,0E0,0E0,1.0271533E2,1.5456055E1,3.2791992E1,0E0,6.7578125E-1,1.5470703E1,1.8689648E2,1.0519531E1,0E0,3.6191406E0,3.1523438E0,0E0,1.2409604E3,2.9176855E2,1.06556875E4,8.045541E3,3.126725E2,1.8261426E2,1.5789938E2,4.687046E2,2.0964404E2,1.6060693E2,4.540127E2,2.8420703E2,0E0,2.3507324E1,2.4507294E1,6.169403E0,2.2690137E2,0E0,2.4080552E3,2.9612402E2,7.26525E3,0E0,0E0,0E0,1.4073875E4,2.3955125E4,1.0888477E3,0E0,0E0,1.1638184E0,2.4785156E0,3.4514404E1,1.7301758E2,3.7636719E0,4.712202E2,0E0,1.990918E1,1.012959E2,0E0,1.0125977E1,0E0,0E0,0E0,0E0,0E0,1.1992188E0,3.5745117E1,2.40625E1,5.9335938E0,0E0,0E0,5.8325195E-1,0E0,0E0,1.3566187E2,6.404729E2,1.7279785E2,1.622251E2,3.4230342E3,4.5497656E3,4.402582E3,2.6374048E3,0E0,9.059204E0,0E0,0E0,5.101853E1,8.330063E1,3.0578735E1,3.12114E2,0E0,0E0,1.0524292E1,1.4924756E2,9.8424805E1,0E0,4.226172E1,0E0,0E0,0E0,2.9779816E0,1.65663E1,0E0,2.1474E0,0E0,1.3280566E2,1.6531207E2,3.8266504E2,0E0,0E0,0E0,6.480375E3,3.4616875E3,7.4E2,0E0,7.3161875E3,2.5378906E1,1.1869629E2,0E0,0E0,0E0,5.4345703E-1,3.7099E0,1.4301758E0,1.8125E1,0E0,0E0,0E0,3.1259155E0,3.870117E1,1.6993164E1,8.060791E0,0E0,5.4057312E1,0E0,0E0,0E0,1.0762695E1,0E0,1.7862549E0,7.2285156E0,2.2685547E0,1.0888672E1,0E0,0E0,1.3803467E1,3.3266258E-1,0E0,6.236555E2,8.034985E1,0E0,8.528809E0,0E0,0E0,5.6849228E1,1.2607568E3,1.30402E3,3.6166152E3,2.335E2,3.3941143E3,5.2246377E3,1.505404E2,0E0,0E0,8.63228E0,0E0,3.3776245E0,0E0,0E0,1.0244629E1,0E0,3.7250732E1,0E0,0E0,1.7716797E1,0E0,0E0,0E0,0E0,0E0,0E0,0E0,5.6898413E0,3.6824722E0,0E0,0E0,0E0,0E0,0E0,4.4781494E0,2.2721594E2,2.0117456E2,0E0,0E0,2.1501875E3,8.915469E2,0E0,2.9385938E2,2.5443438E3,1.5375312E3,2.228247E1,0E0,4.696289E1,0E0,0E0,0E0,0E0,0E0,0E0,0E0,0E0,2.0288086E-1,0E0,1.9375153E0,1.3309814E1,0E0,0E0,2.9025635E1,0E0,6.1879883E0,0E0,9.001373E0,0E0,0E0,0E0,0E0,0E0,0E0,1.3574219E-1,0E0,0E0,0E0,0E0,0E0,0E0,0E0,0E0,0E0,0E0,0E0,0E0,0E0,0E0,0E0,0E0,0E0,0E0,0E0,0E0,0E0,0E0,0E0,0E0,0E0,0E0,0E0,0E0,0E0,0E0,0E0,0E0,0E0,0E0,0E0,0E0,0E0,0E0,0E0,0E0,0E0,0E0,0E0,0E0,0E0,0E0,0E0,0E0,0E0,0E0,0E0,0E0,0E0,0E0,0E0,0E0,0E0,0E0,0E0,0E0,0E0,0E0,0E0,0E0,0E0,0E0,0E0,0E0,0E0,0E0,0E0,0E0,0E0,0E0,0E0,0E0,0E0],"parents":[2147483647,0,0,1,1,2,2,3,3,4,4,5,5,6,6,7,7,8,8,9,9,10,10,11,11,12,12,13,13,14,14,15,15,16,16,17,17,18,18,19,19,20,20,21,21,22,22,23,23,24,24,25,25,26,26,28,28,29,29,30,30,31,31,32,32,33,33,34,34,35,35,36,36,37,37,38,38,39,39,40,40,41,41,42,42,43,43,44,44,45,45,46,46,47,47,48,48,49,49,50,50,53,53,54,54,55,55,57,57,58,58,59,59,60,60,62,62,63,63,65,65,66,66,67,67,68,68,69,69,70,70,71,71,72,72,73,73,74,74,75,75,76,76,78,78,79,79,80,80,81,81,83,83,84,84,85,85,89,89,90,90,91,91,94,94,95,95,96,96,97,97,98,98,99,99,101,101,102,102,104,104,110,110,111,111,112,112,113,113,116,116,119,119,120,120,121,121,122,122,123,123,124,124,125,125,126,126,128,128,131,131,132,132,133,133,134,134,137,137,138,138,139,139,141,141,145,145,146,146,148,148,150,150,151,151,152,152,156,156,157,157,158,158,160,160,161,161,162,162,166,166,167,167,168,168,169,169,173,173,174,174,175,175,176,176,178,178,182,182,184,184,185,185,186,186,187,187,190,190,191,191,193,193,194,194,196,196,199,199,200,200,201,201,202,202,203,203,204,204,205,205,206,206,209,209,211,211,214,214,216,216,219,219,227,227,228,228,234,234,235,235,236,236,239,239,240,240,242,242,243,243,244,244,245,245,247,247,256,256,258,258,259,259,262,262,264,264,266,266,273,273],"right_children":[2,4,6,8,10,12,14,16,18,20,22,24,26,28,30,32,34,36,38,40,42,44,46,48,50,52,54,-1,56,58,60,62,64,66,68,70,72,74,76,78,80,82,84,86,88,90,92,94,96,98,100,-1,-1,102,104,106,-1,108,110,112,114,-1,116,118,-1,120,122,124,126,128,130,132,134,136,138,140,142,-1,144,146,148,150,-1,152,154,156,-1,-1,-1,158,160,162,-1,-1,164,166,168,170,172,174,-1,176,178,-1,180,-1,-1,-1,-1,-1,182,184,186,188,-1,-1,190,-1,-1,192,194,196,198,200,202,204,206,-1,208,-1,-1,210,212,214,216,-1,-1,218,220,222,-1,224,-1,-1,-1,226,228,-1,230,-1,232,234,236,-1,-1,-1,238,240,242,-1,244,246,248,-1,-1,-1,250,252,254,256,-1,-1,-1,258,260,262,264,-1,266,-1,-1,-1,268,-1,270,272,274,276,-1,-1,278,280,-1,282,284,-1,286,-1,-1,288,290,292,294,296,298,300,302,-1,-1,304,-1,306,-1,-1,308,-1,310,-1,-1,312,-1,-1,-1,-1,-1,-1,-1,314,316,-1,-1,-1,-1,-1,318,320,322,-1,-1,324,326,-1,328,330,332,334,-1,336,-1,-1,-1,-1,-1,-1,-1,-1,338,-1,340,342,-1,-1,344,-1,346,-1,348,-1,-1,-1,-1,-1,-1,350,-1,-1,-1,-1,-1,-1,-1,-1,-1,-1,-1,-1,-1,-1,-1,-1,-1,-1,-1,-1,-1,-1,-1,-1,-1,-1,-1,-1,-1,-1,-1,-1,-1,-1,-1,-1,-1,-1,-1,-1,-1,-1,-1,-1,-1,-1,-1,-1,-1,-1,-1,-1,-1,-1,-1,-1,-1,-1,-1,-1,-1,-1,-1,-1,-1,-1,-1,-1,-1,-1,-1,-1,-1,-1,-1,-1,-1],"split_conditions":[5E0,4E0,6E0,1.28E2,2E0,2.048E3,3E0,1E0,1.024E3,4E0,1.6E1,3E0,4.6889677E0,1E1,2E0,2E0,1.7204648E-1,4.882539E-1,2.048E3,1.6E1,2.56E2,4E0,4E0,1.024E3,4E0,1.1E1,1.2E1,-4.9402937E-1,1.1E1,6.4E1,4E0,1.6E1,4.3456383E0,8E0,4E0,8E0,2.56E2,1.5703602E0,8.009878E0,6E0,6.4E1,6.4E1,6.4E1,4E0,4E0,4E0,3.204334E0,5.3975554E0,6.4E1,1.6E1,4E0,-2.1738648E-1,-2.7837214E-1,6.4E1,8.361876E0,1.4878193E1,-4.8844895E-1,8E0,4E0,1.6E1,1.9021017E1,-4.6904016E-1,5.12E2,4E0,-4.945098E-1,4E0,1.1E1,1.6E1,8E0,4E0,1.1E1,4E0,5.12E2,2.56E2,2.56E2,2.56E2,2.56E2,3.05648E-1,1.1E1,6E0,6E0,1.6E1,1.5875067E0,1.6E1,1.1E1,6E0,1.2930358E1,7.0784986E-1,1.1856391E0,6.4E1,3.2E1,4E0,1.3243942E0,-4.568743E-1,2E0,3.2E1,1.2E1,4E0,1.1E1,1.6E1,-4.3519282E-1,1.6E1,1E1,-3.6588755E-1,2.0950167E1,-4.7521612E-1,-3.6499798E-1,-4.8372957E-1,-4.740849E-1,-4.8761564E-1,9E0,4E0,3.2E1,1.024E3,-4.9339002E-1,-4.509974E-1,6E0,-4.6171302E-1,-4.8005E-1,1.3889824E-1,1.6E1,1.6E1,1.6E1,2E0,4E0,1E0,1.0511975E0,1.6174151E-1,2.56E2,9.049041E-1,6.2449074E-1,1.2E1,5.12E2,6.523439E-1,9.373019E-1,6.845334E-1,1.0260934E0,3.6295533E0,1E1,4E0,1.2365669E0,1E1,8.0731934E-1,5.035004E-1,4.0306306E-1,3.2E1,3.2E1,-1.9867523E-1,1.1E1,8.786881E-1,4.5681065E-1,1.024E3,3.2E1,1.2916187E0,9.3318605E-1,8.254394E0,1.1E1,3.2E1,6E0,6.365509E0,6.4E1,1.024E3,1.28E2,-5.0179833E-1,-4.6095696E-1,-4.527023E-1,9.607139E0,2E0,2E0,2E0,-4.587686E-1,-4.318307E-1,-4.4814616E-1,6E0,6.4E1,3E0,1E1,-4.4855636E-1,1.693389E1,-4.2945158E-1,-3.6003935E-1,-4.6249175E-1,2.048E3,-4.0023506E-1,4.556431E0,4E0,6.4E1,3.3632517E0,-4.5609915E-1,-4.4797188E-1,1.1E1,1.1E1,-1.6673121E-1,1.3889824E-1,6E0,1.0560905E0,3.2E1,7.725826E-1,4.7403434E-1,1.024E3,4E0,2E0,1E0,6.4E1,3.2E1,5.12E2,3.2E1,4.5679215E-1,5.456669E-1,5.12E2,1.4971088E-1,8E0,3.0955106E-1,1.5028033E-1,4E0,7.2277194E-1,1.1E1,4.1006765E-1,3.3357078E-1,7.8448873E0,6.461384E-1,6.8919927E-1,9.308539E-1,4.1481376E-1,5.741249E-1,-1.0255457E-1,-1.4479497E-1,1.1E1,1.1E1,-1.2809464E-1,-1.6373363E-1,1.3657527E0,1.0791652E0,-2.19863E-2,5.471283E0,1.4503268E0,6E0,1.0717489E1,9.185529E0,6E0,6E0,2.5389736E0,1.1E1,6E0,6E0,6.4E1,6.5383583E-1,1.024E3,8.3147013E-1,-4.3700042E-1,-3.958324E-1,-3.68681E-1,-3.0738536E-1,-3.9576983E-1,-4.5095566E-1,-3.707417E-1,6E0,-1.7653073E-1,1.1E1,3.2E1,-4.1739392E-1,-4.6522653E-1,4E0,-3.2439038E-1,2E0,-3.2321933E-1,2E0,-4.5343602E-1,-3.8743648E-1,-3.2199436E-1,-3.6613727E-1,-4.5462304E-1,-4.1573763E-1,4E0,-4.7452992E-1,-4.6586135E-1,-4.9347627E-1,-3.6574402E-1,-4.3908823E-1,5.3688645E-2,3.3996027E-2,6.164275E-1,1.15281284E-1,1.1415205E-1,2.5089875E-1,7.158671E-1,8.14801E-1,-7.580712E-2,1.0356453E-2,2.2742203E-1,4.6299773E-1,-2.78063E-1,-1.1552486E-1,-9.2806794E-2,2.2915965E-1,-3.6485517E-1,-2.9469198E-1,-2.9076505E-1,-6.0111657E-2,-1.18424624E-1,7.2101533E-1,-2.2999139E-1,-4.537503E-2,1.5196617E-2,7.31659E-2,1.0798579E-1,1.5646349E-1,2.2777054E-1,2.8505725E-1,3.3815303E-1,4.4810125E-1,4.8689467E-1,3.7057105E-1,-6.2122326E-3,-5.1993646E-2,-5.7269145E-2,-9.960513E-2,-2.619E-1,-3.238473E-1,3.9086255E-1,8.6505614E-2,2.843054E-1,5.81859E-1,3.783343E0,4.5630245E0,3.191612E0,3.818834E0,3.291373E0,2.9075842E0,4.6030464E0,5.483894E0,3.6974475E0,4.4326453E0,5.868031E-1,4.783561E-1,1.1103423E0,9.325432E-1,-3.219402E-1,-2.8425288E-1,-1.09881654E-1,-1.4680064E-1,-3.1089523E-1,-3.635693E-1,-3.1274834E-1,-4.5369622E-1,-3.519852E-1,-4.0285793E-1,-1.4623414E-1,-2.2596838E-1,-4.672347E-1,-4.419787E-1],"split_indices":[0,0,0,5,3,4,1,1,4,1,5,1,6,2,3,3,6,6,4,5,4,1,1,4,3,2,2,0,2,5,1,5,6,3,1,3,5,6,6,2,5,5,5,3,3,3,6,6,5,5,1,0,0,5,6,6,0,2,1,5,6,0,4,3,0,3,2,5,3,3,2,3,4,5,5,5,5,0,2,2,2,5,0,5,2,2,0,0,0,5,5,3,0,0,1,5,2,1,2,5,0,5,2,0,6,0,0,0,0,0,2,3,5,4,0,0,2,0,0,6,5,5,5,3,3,0,6,0,5,0,0,2,4,6,6,0,0,6,2,3,0,2,0,0,0,5,5,0,2,0,6,4,5,0,0,0,2,5,2,0,5,4,5,0,0,0,6,1,3,3,0,0,0,2,5,1,2,0,6,0,0,0,4,0,6,3,5,6,0,0,2,2,0,6,2,0,5,0,0,4,3,3,0,5,5,4,5,0,0,4,0,3,0,0,3,0,2,0,0,6,0,0,0,0,0,0,0,2,2,0,0,0,0,0,6,6,2,0,0,2,2,0,2,2,2,5,0,4,0,0,0,0,0,0,0,0,2,0,2,5,0,0,1,0,3,0,3,0,0,0,0,0,0,3,0,0,0,0,0,0,0,0,0,0,0,0,0,0,0,0,0,0,0,0,0,0,0,0,0,0,0,0,0,0,0,0,0,0,0,0,0,0,0,0,0,0,0,0,0,0,0,0,0,0,0,0,0,0,0,0,0,0,0,0,0,0,0,0,0,0,0,0,0,0,0,0,0,0,0,0,0],"split_type":[0,0,0,0,0,0,0,0,0,0,0,0,0,0,0,0,0,0,0,0,0,0,0,0,0,0,0,0,0,0,0,0,0,0,0,0,0,0,0,0,0,0,0,0,0,0,0,0,0,0,0,0,0,0,0,0,0,0,0,0,0,0,0,0,0,0,0,0,0,0,0,0,0,0,0,0,0,0,0,0,0,0,0,0,0,0,0,0,0,0,0,0,0,0,0,0,0,0,0,0,0,0,0,0,0,0,0,0,0,0,0,0,0,0,0,0,0,0,0,0,0,0,0,0,0,0,0,0,0,0,0,0,0,0,0,0,0,0,0,0,0,0,0,0,0,0,0,0,0,0,0,0,0,0,0,0,0,0,0,0,0,0,0,0,0,0,0,0,0,0,0,0,0,0,0,0,0,0,0,0,0,0,0,0,0,0,0,0,0,0,0,0,0,0,0,0,0,0,0,0,0,0,0,0,0,0,0,0,0,0,0,0,0,0,0,0,0,0,0,0,0,0,0,0,0,0,0,0,0,0,0,0,0,0,0,0,0,0,0,0,0,0,0,0,0,0,0,0,0,0,0,0,0,0,0,0,0,0,0,0,0,0,0,0,0,0,0,0,0,0,0,0,0,0,0,0,0,0,0,0,0,0,0,0,0,0,0,0,0,0,0,0,0,0,0,0,0,0,0,0,0,0,0,0,0,0,0,0,0,0,0,0,0,0,0,0,0,0,0,0,0,0,0,0,0,0,0,0,0,0,0,0,0,0,0,0,0,0,0,0,0,0,0,0,0,0,0,0,0,0,0],"sum_hessian":[3.115E3,1.649E3,1.466E3,1.382E3,2.67E2,5.71E2,8.95E2,1.246E3,1.36E2,1.1E2,1.57E2,4.71E2,1E2,2.16E2,6.79E2,2.41E2,1.005E3,8.5E1,5.1E1,5.8E1,5.2E1,4E1,1.17E2,2.27E2,2.44E2,7E0,9.3E1,7.4E1,1.42E2,3.34E2,3.45E2,5E1,1.91E2,6.5E1,9.4E2,2E1,6.5E1,2.8E1,2.3E1,1.4E1,4.4E1,1.4E1,3.8E1,3.1E1,9E0,8.9E1,2.8E1,1.69E2,5.8E1,1.61E2,8.3E1,3E0,4E0,4.5E1,4.8E1,5.4E1,8.8E1,2.51E2,8.3E1,1.26E2,2.19E2,1.3E1,3.7E1,1.11E2,8E1,4.7E1,1.8E1,4.18E2,5.22E2,1.1E1,9E0,2.9E1,3.6E1,7E0,2.1E1,1.1E1,1.2E1,3E0,1.1E1,3E1,1.4E1,1E1,4E0,2.9E1,9E0,1.6E1,1.5E1,5E0,4E0,4.8E1,4.1E1,2.4E1,4E0,1.54E2,1.5E1,4.3E1,1.5E1,3.9E1,1.22E2,4.5E1,3.8E1,3.1E1,1.4E1,6E0,4.2E1,5.1E1,3E0,1.12E2,1.39E2,2.5E1,5.8E1,3E1,9.6E1,1.98E2,2.1E1,1.9E1,1.8E1,3.4E1,7.7E1,1.1E1,3.6E1,1.1E1,7E0,1.1E2,3.08E2,4.79E2,4.3E1,4E0,7E0,5E0,4E0,1.8E1,1.1E1,2E1,1.6E1,4E0,3E0,9E0,1.2E1,7E0,4E0,7E0,5E0,4E0,7E0,8E0,2.2E1,4E0,1E1,3E0,7E0,1E1,1.9E1,5E0,4E0,4E0,1.2E1,3.3E1,1.5E1,1.1E1,3E1,1.2E1,1.2E1,7E0,8E0,2.9E1,1.4E1,7E0,8E0,1.5E1,2.4E1,5.3E1,6.9E1,1.2E1,3.3E1,1.2E1,1.9E1,3E0,1.1E1,3.9E1,3E0,3.6E1,2.2E1,1.5E1,1.5E1,3.2E1,6.4E1,1.27E2,7.1E1,5E0,1.3E1,6E0,5E0,1.2E1,2.4E1,3E0,8E0,3E0,4E0,2.8E1,8.2E1,1.78E2,1.3E2,2.48E2,2.31E2,2.7E1,1.6E1,4E0,3E0,1.4E1,4E0,7E0,4E0,4E0,1.6E1,3E0,1.3E1,4E0,5E0,6E0,6E0,3E0,4E0,3E0,4E0,4E0,4E0,1.1E1,1.1E1,4E0,6E0,3E0,4E0,3E0,7E0,9E0,1E1,5E0,7E0,1.7E1,1.6E1,4E0,1.1E1,1.5E1,1.5E1,9E0,3E0,8E0,4E0,1E1,4E0,3E0,4E0,3E0,5E0,6E0,9E0,3E0,9E0,2.3E1,1E1,6E0,6E0,4E0,1.5E1,5E0,6E0,1.8E1,4E0,1.2E1,3E0,1.1E1,2.1E1,3.1E1,3.3E1,1.03E2,2.4E1,5E0,8E0,3E0,3E0,9E0,3E0,5E0,1.9E1,3E0,5E0,1.6E1,1.2E1,4.1E1,4.1E1,8.7E1,9.1E1,7.7E1,5.3E1,1.92E2,5.6E1,1.07E2,1.24E2,1.2E1,1.5E1,8E0,8E0,1.1E1,3E0,3E0,4E0,1.1E1,5E0,8E0,5E0,3E0,3E0,4E0,7E0,3E0,8E0,4E0,3E0,4E0,5E0,3E0,7E0,5E0,1.2E1,3E0,1.3E1,4E0,7E0,5E0,1E1,4E0,1.1E1,5E0,4E0,5E0,3E0,3E0,6E0,3E0,6E0,9E0,1.4E1,3E0,3E0,6E0,9E0,3E0,3E0,1.4E1,1.7E1],"tree_param":{"num_deleted":"0","num_feature":"7","num_nodes":"351","size_leaf_vector":"1"}},{"base_weights":[-1.3369223E-1,1.3070314E1,-1.4555904E1,-3.497338E0,9.946053E1,-1.3591744E1,-1.5184109E1,-5.451823E0,1.4105773E1,1.00794115E1,1.6254765E2,-1.3880655E1,-1.2266107E1,-1.5715246E1,-1.5012676E1,-1.5352837E1,-3.0516493E0,9.665638E0,2.1737345E1,6.610196E-2,2.0466722E1,3.003623E2,1.1698586E2,-1.4618779E1,-1.320895E1,-8.181818E0,-1.2555957E1,-4.7919747E-1,-1.5587118E1,-1.53969555E1,-1.4636606E1,-1.4371868E1,-1.561105E1,8.606634E0,-4.3970313E0,5.826991E0,1.4286457E1,1.8173365E1,2.5907085E1,1.298421E1,-3.5388072E0,7.4703116E0,3.2060284E1,3.620191E2,2.7169624E1,1.4548393E2,2.8414412E1,-1.4832384E1,-1.3999202E1,-1.21930275E1,-1.4306908E1,-2.1088655E-1,-2.7004182E-1,-1.1551912E1,-1.3515337E1,-1.5212596E1,-4.7368333E-1,-1.5488742E1,-1.5109567E1,-1.3863807E1,-1.5116635E1,-4.5497978E-1,-1.4086126E1,-1.5347753E1,-4.792323E-1,4.3367486E0,2.4119923E1,-2.575581E-1,-7.740499E0,2.3193257E0,9.1819725E0,1.9370127E1,9.444706E0,2.6501583E1,1.5241703E1,2.1221943E1,3.1960497E1,2.9650897E-1,1.399452E1,-2.6595018E0,-5.3498893E0,2.9338835E1,-1.0401298E0,4.4350925E1,2.711932E1,3.0322995E2,4.2447708E2,9.6171993E-1,7.022431E-1,1.207714E2,1.6851477E2,2.591381E1,1.4719261E0,-4.4282427E-1,-1.5505395E1,-1.4195377E1,-3.5509312E-1,-8.638326E0,-1.3486937E1,-4.3462816E-1,-1.3856038E1,-1.2598293E1,-8.996387E0,-3.549292E-1,-1.374001E1,-4.602635E-1,-3.9059782E-1,-4.6958852E-1,-4.605315E-1,-4.7306198E-1,-1.4815989E1,-1.1829335E1,-1.4653798E1,-1.5014479E1,-4.7834578E-1,-4.2638025E-1,-3.7728685E-1,-4.4923922E-1,-4.660025E-1,-1.3922236E0,7.7757225E0,2.7845385E1,1.9616028E1,7.9773884E0,-3.2011483E0,-1.1328971E1,-4.3092046E0,1.7547743E-1,1.5682378E0,7.1051874E0,1.4193997E1,1.431269E1,2.495628E1,4.786575E0,1.253523E1,6.419177E-1,9.9541295E-1,1.1910163E1,1.7945133E1,9.0299785E-1,1.7236042E1,1.1319691E0,7.831481E-1,4.7088182E-1,3.930723E-1,-4.0166035E0,-2.1360853E0,-1.9272983E-1,-4.904135E0,9.951694E-1,7.90897E-1,-6.775309E0,6.1158686E0,1.0385542E0,1.5026904E0,1.8495789E1,3.283983E1,7.977419E0,3.154285E2,1.2139971E1,1.3018758E1,1.2927408E2,9.6704575E1,1.8545634E2,1.3452397E2,2.1156935E1,3.1036858E1,-4.8676586E-1,-4.4750416E-1,-4.3414104E-1,-1.3209842E1,-1.0954435E1,-4.7056627E0,-1.4284238E1,-1.1885245E1,-4.2481926E-1,-1.3071153E1,-1.3756005E1,-1.1956307E1,-5.1312504E0,-1.1872728E1,-1.3931115E1,-3.5322154E-1,-1.464144E1,-4.7558984E-1,-3.882242E-1,-1.0764849E1,-1.3908234E1,-1.501114E1,-3.965825E-1,-1.5042182E1,1.4852726E0,-5.161039E0,1.1500168E1,1.690883E0,9.594203E-1,2.5727907E1,7.4948215E-1,1.7269384E1,3.4101477E0,1.4990362E1,-6.2913136E0,1.1397407E0,-1.2712036E1,-1.0631704E1,-6.5889144E0,2.6017997E0,5.5852187E-1,3.7347474E0,1.2988396E-1,7.6893325E0,3.764826E-1,4.8913696E-1,3.5086638E-1,1.601845E1,8.815725E-1,6.402348E-1,1.0475695E-1,1.66047E-1,5.2498996E-1,1.0021778E1,3.9779624E-1,3.2358363E-1,4.3059683E-1,2.0892885E1,4.4024333E-1,5.7695144E-1,-9.948561E-2,-1.4046197E-1,-1.3125528E0,-2.8737965E0,-1.2640904E-1,-1.6020161E-1,-2.132891E-2,-9.355328E0,3.4758335E-1,8.391562E-2,6.23993E-1,5.116405E-1,2.9297918E1,1.131305E0,1.0484497E1,8.939208E0,1.3884021E2,1.2021846E2,9.868952E1,2.7320356E0,2.058528E2,1.6974133E2,3.5957308E0,1.4172005E2,1.8980055E1,8.4878445E-1,3.3994232E1,8.045095E-1,-3.4510177E-1,-4.2105463E-1,-3.659557E-1,-2.9073948E-1,-1.712524E-1,-4.3894453E0,-4.4460228E-1,-1.380428E1,-2.9996786E-1,-1.2505425E1,-3.673902E-1,-4.1549745E-1,-4.512929E-1,-1.2429386E1,-1.0859556E1,-1.2354302E1,-2.7723238E-1,-2.913453E-2,-4.4059065E-1,-2.7013668E-1,-4.2446584E-1,-3.9763212E-1,-4.4898903E-1,-4.1436142E-1,-3.164942E-1,-3.5518968E-1,-4.41306E-1,-4.036507E-1,-1.4663817E1,-4.6051943E-1,-1.5223551E1,-4.4171372E-1,2.6782894E-1,-1.1154309E-1,-2.8593622E-2,-2.1050978E-1,5.051598E-1,1.5009543E-1,-3.0275393E-1,1.1733916E-1,7.201738E-1,8.542676E-1,4.3180943E-1,5.8079934E-1,-4.0718302E-2,2.028718E-1,3.1514907E-1,5.906227E-1,-2.6825544E-1,-1.1458877E-1,-9.125403E-2,2.2501683E-1,-3.537051E-1,-4.2262784E-1,-2.5170738E-1,-3.392978E-1,-2.7543554E-1,-6.0365174E-2,-6.350597E-2,2.876243E-1,5.4230154E-2,5.1706615E-3,1.4150888E-1,8.120705E-2,2.0273739E-1,2.6703826E-1,5.1764923E-1,4.4086456E-1,2.6196158E-1,3.3784723E-1,6.61304E-1,5.891901E-1,-1.2492674E-2,-5.043604E-2,-5.555675E-2,-9.725208E-2,-2.5406262E-1,-3.1416416E-1,9.9060184E-1,7.262588E-1,3.6700692E0,4.4085617E0,3.0961819E0,3.7216308E0,3.0460916E0,2.807699E0,5.200631E0,6.4622827E0,4.465231E0,5.3493085E0,4.6117144E0,4.090481E0,6.1017245E-1,5.268954E-1,1.0737382E0,9.4362026E-1,-1.06596135E-1,-1.4183965E-1,-3.9334524E-1,-4.2514452E-1,-3.5370842E-1,-4.0451574E-1,-3.0339706E-1,-4.401306E-1,-3.5430834E-1,-2.95186E-1,-4.2534438E-1,-3.5745463E-1,-4.534192E-1,-4.2899838E-1,-4.5221063E-1,-4.783493E-1],"categories":[],"categories_nodes":[],"categories_segments":[],"categories_sizes":[],"default_left":[0,0,0,0,0,0,0,0,0,0,0,0,0,0,0,0,0,0,0,0,0,0,0,0,0,0,0,0,0,0,0,0,0,0,0,0,0,0,0,0,0,0,0,0,0,0,0,0,0,0,0,0,0,0,0,0,0,0,0,0,0,0,0,0,0,0,0,0,0,0,0,0,0,0,0,0,0,0,0,0,0,0,0,0,0,0,0,0,0,0,0,0,0,0,0,0,0,0,0,0,0,0,0,0,0,0,0,0,0,0,0,0,0,0,0,0,0,0,0,0,0,0,0,0,0,0,0,0,0,0,0,0,0,0,0,0,0,0,0,0,0,0,0,0,0,0,0,0,0,0,0,0,0,0,0,0,0,0,0,0,0,0,0,0,0,0,0,0,0,0,0,0,0,0,0,0,0,0,0,0,0,0,0,0,0,0,0,0,0,0,0,0,0,0,0,0,0,0,0,0,0,0,0,0,0,0,0,0,0,0,0,0,0,0,0,0,0,0,0,0,0,0,0,0,0,0,0,0,0,0,0,0,0,0,0,0,0,0,0,0,0,0,0,0,0,0,0,0,0,0,0,0,0,0,0,0,0,0,0,0,0,0,0,0,0,0,0,0,0,0,0,0,0,0,0,0,0,0,0,0,0,0,0,0,0,0,0,0,0,0,0,0,0,0,0,0,0,0,0,0,0,0,0,0,0,0,0,0,0,0,0,0,0,0,0,0,0,0,0,0,0,0,0,0,0,0,0,0,0,0,0,0,0,0,0,0,0,0,0,0,0,0,0,0,0,0,0,0,0,0,0,0,0,0,0,0,0,0,0,0,0,0,0,0,0,0,0],"id":2,"left_children":[1,3,5,7,9,11,13,15,17,19,21,23,25,27,29,31,33,35,37,39,41,43,45,47,49,51,53,-1,55,57,59,61,63,65,67,69,71,73,75,77,79,81,83,85,87,89,91,93,95,97,99,-1,-1,101,103,105,-1,107,109,111,113,-1,115,117,-1,119,121,123,125,127,129,131,133,135,137,139,141,-1,143,145,147,149,151,153,155,157,159,-1,-1,161,163,165,-1,-1,167,169,-1,171,173,-1,175,177,179,-1,181,-1,-1,-1,-1,-1,183,185,187,189,-1,-1,-1,-1,-1,191,193,195,197,199,201,203,205,-1,207,209,211,213,215,217,219,-1,-1,221,223,-1,225,-1,-1,-1,-1,227,229,-1,231,-1,-1,233,235,-1,-1,237,239,-1,241,-1,-1,243,245,247,249,251,253,-1,-1,-1,255,257,259,261,263,-1,265,267,269,271,273,275,-1,277,-1,-1,279,281,283,-1,285,287,289,291,293,-1,295,-1,297,299,301,303,305,307,309,311,313,315,317,-1,319,-1,-1,-1,321,-1,-1,-1,-1,-1,323,-1,-1,-1,325,-1,-1,-1,-1,327,329,-1,-1,-1,331,-1,-1,-1,-1,333,-1,-1,-1,335,337,339,-1,341,343,-1,345,347,-1,349,-1,-1,-1,-1,-1,-1,351,-1,353,-1,355,-1,-1,-1,357,359,361,-1,-1,-1,-1,-1,-1,-1,-1,-1,-1,-1,-1,363,-1,365,-1,-1,-1,-1,-1,-1,-1,-1,-1,-1,-1,-1,-1,-1,-1,-1,-1,-1,-1,-1,-1,-1,-1,-1,-1,-1,-1,-1,-1,-1,-1,-1,-1,-1,-1,-1,-1,-1,-1,-1,-1,-1,-1,-1,-1,-1,-1,-1,-1,-1,-1,-1,-1,-1,-1,-1,-1,-1,-1,-1,-1,-1,-1,-1,-1,-1,-1,-1,-1,-1,-1,-1,-1,-1,-1,-1,-1,-1,-1,-1,-1],"loss_changes":[5.91673E5,2.3215682E6,8.945E2,4.6825484E4,1.4717492E6,2.2011719E2,7.64375E1,2.9109023E4,4.6034863E3,1.1232201E4,9.6036925E5,2.3378125E2,1.2121289E2,1.5976562E0,9.3015625E1,5.530078E1,1.5465367E4,1.5227754E3,7.340742E2,2.563143E3,7.980916E3,6.4011025E5,2.9023975E5,2.534375E1,2.7670312E2,4.384186E0,9.034277E1,0E0,5.6367188E0,3.4765625E0,1.22625E2,6.286133E0,1.2496094E1,6.753247E3,1.2234051E4,5.518578E2,9.554756E2,6.51249E2,6.404873E2,3.3850708E1,6.754993E1,4.6577656E3,1.6818047E3,1.12504E5,1.1583008E2,4.928925E4,1.4261387E3,2.8789062E0,2.075293E1,5.9919727E2,5.017578E0,0E0,0E0,1.2508838E2,1.47421875E1,9.935547E0,0E0,2.3828125E-1,1.0474609E1,2.0778516E2,1.2449219E1,0E0,2.605957E0,2.2421875E0,0E0,1.5770865E3,3.590996E2,9.574941E3,6.0191816E3,6.0172523E1,2.467793E2,5.2956396E2,2.8573303E2,2.264209E2,1.7509912E2,4.5045996E2,3.220752E2,0E0,8.7404785E0,1.9905594E1,5.261963E0,6.526318E1,7.3962744E2,4.2156543E2,9.759043E2,6.390875E3,9.7975E2,0E0,0E0,8.449E3,2.5637875E4,5.977012E2,0E0,0E0,1.251709E0,1.0011719E1,0E0,3.1680615E2,1.1829492E2,0E0,3.7954102E0,2.1061523E1,1.5344604E2,0E0,1.2323242E1,0E0,0E0,0E0,0E0,0E0,4.9492188E0,4.0024414E1,2.0333984E1,4.5859375E0,0E0,0E0,0E0,0E0,0E0,3.2589526E2,1.1318452E3,9.1166016E1,1.17523926E2,3.329083E3,3.9042134E3,2.2680469E2,3.9394995E3,0E0,4.113531E1,2.6045654E1,1.9400024E1,4.0042236E1,1.329336E2,6.6644287E0,1.4535315E2,0E0,0E0,9.834473E0,1.1005054E2,0E0,3.9841064E1,0E0,0E0,0E0,0E0,2.778366E0,1.2307823E1,0E0,1.8326416E0,0E0,0E0,1.5554459E2,1.4365106E2,0E0,0E0,1.9262695E1,1.8942578E2,0E0,6.032875E3,0E0,0E0,2.4934688E3,1.43359375E1,9.232125E3,1.388125E3,1.9199951E2,1.3468457E2,0E0,0E0,0E0,1.274585E1,3.1216309E1,2.8649597E0,1.1553711E1,3.39458E1,0E0,2.1240234E0,1.5889648E1,5.944092E0,1.016438E2,6.094873E1,1.2797852E0,0E0,8.259766E0,0E0,0E0,9.057617E-1,6.4746094E0,2.296875E0,0E0,5.5E0,6.595718E2,1.00740326E2,1.0725283E3,4.971264E2,0E0,2.5817383E1,0E0,3.5981934E1,1.0076317E3,8.5891797E2,1.1121675E3,3.2193027E3,9.7211914E1,2.388086E2,2.2292754E3,2.04499E3,6.074643E0,5.197426E0,0E0,1.36474E1,0E0,0E0,0E0,4.100952E0,0E0,0E0,0E0,0E0,0E0,9.825256E0,0E0,0E0,0E0,1.6870117E-1,0E0,0E0,0E0,0E0,3.0901127E0,3.5703583E0,0E0,0E0,0E0,4.159851E0,0E0,0E0,0E0,0E0,1.1907471E2,0E0,0E0,0E0,1.8028438E3,8.940156E2,1.75E0,0E0,3.6283125E3,2.7482188E3,0E0,4.0671875E2,1.19123535E1,0E0,1.4017578E1,0E0,0E0,0E0,0E0,0E0,0E0,1.8377533E0,0E0,4.0649414E0,0E0,1.2683105E1,0E0,0E0,0E0,2.7241577E1,2.5012207E0,8.524414E0,0E0,0E0,0E0,0E0,0E0,0E0,0E0,0E0,0E0,0E0,0E0,0E0,1.4013672E-1,0E0,7.2539062E0,0E0,0E0,0E0,0E0,0E0,0E0,0E0,0E0,0E0,0E0,0E0,0E0,0E0,0E0,0E0,0E0,0E0,0E0,0E0,0E0,0E0,0E0,0E0,0E0,0E0,0E0,0E0,0E0,0E0,0E0,0E0,0E0,0E0,0E0,0E0,0E0,0E0,0E0,0E0,0E0,0E0,0E0,0E0,0E0,0E0,0E0,0E0,0E0,0E0,0E0,0E0,0E0,0E0,0E0,0E0,0E0,0E0,0E0,0E0,0E0,0E0,0E0,0E0,0E0,0E0,0E0,0E0,0E0,0E0,0E0,0E0,0E0,0E0,0E0,0E0,0E0,0E0,0E0,0E0,0E0,0E0],"parents":[2147483647,0,0,1,1,2,2,3,3,4,4,5,5,6,6,7,7,8,8,9,9,10,10,11,11,12,12,13,13,14,14,15,15,16,16,17,17,18,18,19,19,20,20,21,21,22,22,23,23,24,24,25,25,26,26,28,28,29,29,30,30,31,31,32,32,33,33,34,34,35,35,36,36,37,37,38,38,39,39,40,40,41,41,42,42,43,43,44,44,45,45,46,46,47,47,48,48,49,49,50,50,53,53,54,54,55,55,57,57,58,58,59,59,60,60,62,62,63,63,65,65,66,66,67,67,68,68,69,69,70,70,71,71,72,72,73,73,74,74,75,75,76,76,78,78,79,79,80,80,81,81,82,82,83,83,84,84,85,85,86,86,89,89,90,90,91,91,94,94,95,95,97,97,98,98,100,100,101,101,102,102,104,104,110,110,111,111,112,112,113,113,119,119,120,120,121,121,122,122,123,123,124,124,125,125,126,126,128,128,129,129,130,130,131,131,132,132,133,133,134,134,137,137,138,138,140,140,145,145,146,146,148,148,151,151,152,152,155,155,156,156,158,158,161,161,162,162,163,163,164,164,165,165,166,166,170,170,171,171,172,172,173,173,174,174,176,176,177,177,178,178,179,179,180,180,181,181,183,183,186,186,187,187,188,188,190,190,191,191,192,192,193,193,194,194,196,196,198,198,199,199,200,200,201,201,202,202,203,203,204,204,205,205,206,206,207,207,208,208,210,210,214,214,220,220,224,224,229,229,230,230,234,234,239,239,243,243,244,244,245,245,247,247,248,248,250,250,251,251,253,253,260,260,262,262,264,264,268,268,269,269,270,270,283,283,285,285],"right_children":[2,4,6,8,10,12,14,16,18,20,22,24,26,28,30,32,34,36,38,40,42,44,46,48,50,52,54,-1,56,58,60,62,64,66,68,70,72,74,76,78,80,82,84,86,88,90,92,94,96,98,100,-1,-1,102,104,106,-1,108,110,112,114,-1,116,118,-1,120,122,124,126,128,130,132,134,136,138,140,142,-1,144,146,148,150,152,154,156,158,160,-1,-1,162,164,166,-1,-1,168,170,-1,172,174,-1,176,178,180,-1,182,-1,-1,-1,-1,-1,184,186,188,190,-1,-1,-1,-1,-1,192,194,196,198,200,202,204,206,-1,208,210,212,214,216,218,220,-1,-1,222,224,-1,226,-1,-1,-1,-1,228,230,-1,232,-1,-1,234,236,-1,-1,238,240,-1,242,-1,-1,244,246,248,250,252,254,-1,-1,-1,256,258,260,262,264,-1,266,268,270,272,274,276,-1,278,-1,-1,280,282,284,-1,286,288,290,292,294,-1,296,-1,298,300,302,304,306,308,310,312,314,316,318,-1,320,-1,-1,-1,322,-1,-1,-1,-1,-1,324,-1,-1,-1,326,-1,-1,-1,-1,328,330,-1,-1,-1,332,-1,-1,-1,-1,334,-1,-1,-1,336,338,340,-1,342,344,-1,346,348,-1,350,-1,-1,-1,-1,-1,-1,352,-1,354,-1,356,-1,-1,-1,358,360,362,-1,-1,-1,-1,-1,-1,-1,-1,-1,-1,-1,-1,364,-1,366,-1,-1,-1,-1,-1,-1,-1,-1,-1,-1,-1,-1,-1,-1,-1,-1,-1,-1,-1,-1,-1,-1,-1,-1,-1,-1,-1,-1,-1,-1,-1,-1,-1,-1,-1,-1,-1,-1,-1,-1,-1,-1,-1,-1,-1,-1,-1,-1,-1,-1,-1,-1,-1,-1,-1,-1,-1,-1,-1,-1,-1,-1,-1,-1,-1,-1,-1,-1,-1,-1,-1,-1,-1,-1,-1,-1,-1,-1,-1,-1,-1],"split_conditions":[5E0,4E0,6E0,1.28E2,2E0,2.048E3,3E0,1E0,1.024E3,4E0,1.6E1,3E0,4.6889677E0,1E1,2E0,2E0,2.4314898E-1,4E0,2.048E3,1.6E1,3.2E1,4E0,4E0,1.024E3,4E0,1.1E1,1.2E1,-4.7919747E-1,1.1E1,6.4E1,4E0,1.6E1,4.3456383E0,8E0,4E0,2.56E2,5.9650266E-1,1.5703602E0,2.56E2,6E0,6.4E1,8.582708E-1,8.783238E-1,4E0,5.12E2,4E0,3.6866899E0,5.3975554E0,2.9114794E1,1.6E1,1.024E3,-2.1088655E-1,-2.7004182E-1,6.4E1,8.361876E0,1.4066439E1,-4.7368333E-1,8E0,4E0,1.6E1,1.9021017E1,-4.5497978E-1,2.048E3,4E0,-4.792323E-1,4E0,1.1E1,1.6E1,1E0,5.042948E-1,5.12E2,8E0,2.56E2,2.56E2,2.56E2,2.5800633E0,1.0807918E1,2.9650897E-1,1.1E1,6E0,6E0,4.3575555E-1,1.6E1,6.4E1,6.4E1,6E0,1E1,9.6171993E-1,7.022431E-1,6.4E1,6.4E1,4E0,1.4719261E0,-4.4282427E-1,2E0,6.4E1,-3.5509312E-1,4E0,4E0,-4.3462816E-1,6.4E1,1.6E1,3E0,-3.549292E-1,2.0950167E1,-4.602635E-1,-3.9059782E-1,-4.6958852E-1,-4.605315E-1,-4.7306198E-1,1.743974E1,4E0,3.2E1,2.4314898E-1,-4.7834578E-1,-4.2638025E-1,-3.7728685E-1,-4.4923922E-1,-4.660025E-1,4E0,4E0,1.6E1,1.6E1,4E0,4E0,1E1,6.4E1,1.7547743E-1,5.12E2,6E0,2.7187903E0,6E0,1.1E1,8E0,9.562109E-1,6.419177E-1,9.9541295E-1,3.6295533E0,1E1,9.0299785E-1,1E1,1.1319691E0,7.831481E-1,4.7088182E-1,3.930723E-1,3.2E1,3.2E1,-1.9272983E-1,1.1E1,9.951694E-1,7.90897E-1,1.024E3,1.4503268E0,1.0385542E0,1.5026904E0,1.1E1,1.024E3,7.977419E0,1.1E1,1.2139971E1,1.3018758E1,3.2E1,4.556431E0,3.2E1,6E0,2.158237E0,6.4E1,-4.8676586E-1,-4.4750416E-1,-4.3414104E-1,2E0,2E0,6E0,2E0,3.2E1,-4.2481926E-1,1.1E1,3E0,2E0,2E0,4E0,4E0,-3.5322154E-1,1.024E3,-4.7558984E-1,-3.882242E-1,4.6889677E0,4E0,6.4E1,-3.965825E-1,1.024E3,1.6E1,1.5246612E-1,3.2E1,1E0,9.594203E-1,8.5427634E-2,7.4948215E-1,8.5427634E-2,2E0,1.024E3,2E0,1E0,4E0,1.1E1,4E0,1.024E3,8.4318876E-1,1.7320267E0,1.2988396E-1,2.56E2,3.764826E-1,4.8913696E-1,3.5086638E-1,2.56E2,8.815725E-1,6.402348E-1,1.0475695E-1,1.66047E-1,5.2498996E-1,3.204334E0,3.9779624E-1,3.2358363E-1,4.3059683E-1,5.471283E0,4.4024333E-1,5.7695144E-1,-9.948561E-2,-1.4046197E-1,1.1E1,1.1E1,-1.2640904E-1,-1.6020161E-1,-2.132891E-2,5.471283E0,3.4758335E-1,8.391562E-2,6.23993E-1,5.116405E-1,1.8192434E0,1.131305E0,1.0484497E1,8.939208E0,6E0,6E0,1.1E1,2.7320356E0,6E0,6E0,3.5957308E0,1.1E1,6.4E1,8.4878445E-1,1.024E3,8.045095E-1,-3.4510177E-1,-4.2105463E-1,-3.659557E-1,-2.9073948E-1,-1.712524E-1,1.1E1,-4.4460228E-1,3.2E1,-2.9996786E-1,6.4E1,-3.673902E-1,-4.1549745E-1,-4.512929E-1,4E0,3.2E1,2E0,-2.7723238E-1,-2.913453E-2,-4.4059065E-1,-2.7013668E-1,-4.2446584E-1,-3.9763212E-1,-4.4898903E-1,-4.1436142E-1,-3.164942E-1,-3.5518968E-1,-4.41306E-1,-4.036507E-1,4E0,-4.6051943E-1,3.3632517E0,-4.4171372E-1,2.6782894E-1,-1.1154309E-1,-2.8593622E-2,-2.1050978E-1,5.051598E-1,1.5009543E-1,-3.0275393E-1,1.1733916E-1,7.201738E-1,8.542676E-1,4.3180943E-1,5.8079934E-1,-4.0718302E-2,2.028718E-1,3.1514907E-1,5.906227E-1,-2.6825544E-1,-1.1458877E-1,-9.125403E-2,2.2501683E-1,-3.537051E-1,-4.2262784E-1,-2.5170738E-1,-3.392978E-1,-2.7543554E-1,-6.0365174E-2,-6.350597E-2,2.876243E-1,5.4230154E-2,5.1706615E-3,1.4150888E-1,8.120705E-2,2.0273739E-1,2.6703826E-1,5.1764923E-1,4.4086456E-1,2.6196158E-1,3.3784723E-1,6.61304E-1,5.891901E-1,-1.2492674E-2,-5.043604E-2,-5.555675E-2,-9.725208E-2,-2.5406262E-1,-3.1416416E-1,9.9060184E-1,7.262588E-1,3.6700692E0,4.4085617E0,3.0961819E0,3.7216308E0,3.0460916E0,2.807699E0,5.200631E0,6.4622827E0,4.465231E0,5.3493085E0,4.6117144E0,4.090481E0,6.1017245E-1,5.268954E-1,1.0737382E0,9.4362026E-1,-1.06596135E-1,-1.4183965E-1,-3.9334524E-1,-4.2514452E-1,-3.5370842E-1,-4.0451574E-1,-3.0339706E-1,-4.401306E-1,-3.5430834E-1,-2.95186E-1,-4.2534438E-1,-3.5745463E-1,-4.534192E-1,-4.2899838E-1,-4.5221063E-1,-4.783493E-1],"split_indices":[0,0,0,5,3,4,1,1,4,1,5,1,6,2,3,3,6,3,4,5,5,1,1,4,1,2,2,0,2,5,1,5,6,3,1,5,6,6,5,2,5,6,6,3,4,3,6,6,6,5,4,0,0,5,6,6,0,2,1,5,6,0,4,3,0,3,2,5,0,6,4,3,5,5,5,6,6,0,2,2,2,6,5,5,5,2,2,0,0,5,5,3,0,0,1,5,0,3,3,0,5,5,1,0,6,0,0,0,0,0,6,3,5,6,0,0,0,0,0,1,1,5,5,3,3,2,5,0,4,2,6,2,2,3,6,0,0,6,2,0,2,0,0,0,0,5,5,0,2,0,0,4,6,0,0,2,4,0,2,0,0,5,6,5,2,6,5,0,0,0,3,3,2,3,5,0,2,1,3,1,1,3,0,4,0,0,6,3,5,0,4,5,6,5,0,0,6,0,6,3,4,3,0,3,2,3,4,6,6,0,4,0,0,0,4,0,0,0,0,0,6,0,0,0,6,0,0,0,0,2,2,0,0,0,6,0,0,0,0,6,0,0,0,2,2,2,0,2,2,0,2,5,0,4,0,0,0,0,0,0,2,0,5,0,5,0,0,0,1,5,1,0,0,0,0,0,0,0,0,0,0,0,0,3,0,6,0,0,0,0,0,0,0,0,0,0,0,0,0,0,0,0,0,0,0,0,0,0,0,0,0,0,0,0,0,0,0,0,0,0,0,0,0,0,0,0,0,0,0,0,0,0,0,0,0,0,0,0,0,0,0,0,0,0,0,0,0,0,0,0,0,0,0,0,0,0,0,0,0,0,0,0,0,0,0,0,0],"split_type":[0,0,0,0,0,0,0,0,0,0,0,0,0,0,0,0,0,0,0,0,0,0,0,0,0,0,0,0,0,0,0,0,0,0,0,0,0,0,0,0,0,0,0,0,0,0,0,0,0,0,0,0,0,0,0,0,0,0,0,0,0,0,0,0,0,0,0,0,0,0,0,0,0,0,0,0,0,0,0,0,0,0,0,0,0,0,0,0,0,0,0,0,0,0,0,0,0,0,0,0,0,0,0,0,0,0,0,0,0,0,0,0,0,0,0,0,0,0,0,0,0,0,0,0,0,0,0,0,0,0,0,0,0,0,0,0,0,0,0,0,0,0,0,0,0,0,0,0,0,0,0,0,0,0,0,0,0,0,0,0,0,0,0,0,0,0,0,0,0,0,0,0,0,0,0,0,0,0,0,0,0,0,0,0,0,0,0,0,0,0,0,0,0,0,0,0,0,0,0,0,0,0,0,0,0,0,0,0,0,0,0,0,0,0,0,0,0,0,0,0,0,0,0,0,0,0,0,0,0,0,0,0,0,0,0,0,0,0,0,0,0,0,0,0,0,0,0,0,0,0,0,0,0,0,0,0,0,0,0,0,0,0,0,0,0,0,0,0,0,0,0,0,0,0,0,0,0,0,0,0,0,0,0,0,0,0,0,0,0,0,0,0,0,0,0,0,0,0,0,0,0,0,0,0,0,0,0,0,0,0,0,0,0,0,0,0,0,0,0,0,0,0,0,0,0,0,0,0,0,0,0,0,0,0,0,0,0,0,0,0,0,0,0,0,0,0,0,0,0,0,0,0,0,0,0,0,0,0,0,0,0,0,0,0,0,0,0],"sum_hessian":[3.107E3,1.622E3,1.485E3,1.361E3,2.61E2,5.86E2,8.99E2,1.225E3,1.36E2,1.08E2,1.53E2,4.81E2,1.05E2,2.19E2,6.8E2,2.39E2,9.86E2,8.6E1,5E1,5.5E1,5.3E1,3.8E1,1.15E2,2.29E2,2.52E2,7E0,9.8E1,7.2E1,1.47E2,3.36E2,3.44E2,5E1,1.89E2,1.02E2,8.84E2,4.7E1,3.9E1,2.7E1,2.3E1,1.2E1,4.3E1,2.5E1,2.8E1,3.1E1,7E0,8.7E1,2.8E1,1.7E2,5.9E1,1.31E2,1.21E2,3E0,4E0,4.8E1,5E1,5.2E1,9.5E1,2.54E2,8.2E1,1.32E2,2.12E2,1.3E1,3.7E1,1.1E2,7.9E1,8E1,2.2E1,3.95E2,4.89E2,2.3E1,2.4E1,1.9E1,2E1,7E0,2E1,1.3E1,1E1,3E0,9E0,2.9E1,1.4E1,7E0,1.8E1,8E0,2E1,1.6E1,1.5E1,3E0,4E0,4.2E1,4.5E1,2.5E1,3E0,1.54E2,1.6E1,5.4E1,5E0,3.5E1,9.6E1,8.6E1,3.5E1,3.4E1,1.4E1,6E0,4.4E1,4.9E1,3E0,1.15E2,1.39E2,2.5E1,5.7E1,3.7E1,9.5E1,1.89E2,2.3E1,3.4E1,3E0,3.7E1,7.3E1,3E1,5E1,1.2E1,1E1,1.04E2,2.91E2,2.39E2,2.5E2,4E0,1.9E1,1.7E1,7E0,1E1,9E0,8E0,1.2E1,4E0,3E0,9E0,1.1E1,4E0,9E0,5E0,5E0,3E0,6E0,8E0,2.1E1,4E0,1E1,3E0,4E0,1E1,8E0,3E0,5E0,8E0,1.2E1,4E0,1.2E1,5E0,1E1,3.1E1,1.1E1,3E1,1.5E1,1.3E1,1.2E1,7E0,9E0,4.2E1,1.2E1,2.2E1,1.3E1,6.4E1,3.2E1,2.5E1,1E1,1.2E1,2.2E1,6E0,8E0,4E1,4E0,4.9E1,8E0,1.8E1,1.9E1,3.1E1,6.4E1,3E0,1.86E2,1.7E1,1.3E1,3.1E1,1.9E1,4E0,8E0,3E0,7E0,6.3E1,4.1E1,1.7E2,1.21E2,8E1,1.59E2,1.88E2,6.2E1,1.3E1,6E0,3E0,1.4E1,4E0,3E0,4E0,6E0,4E0,5E0,3E0,5E0,4E0,8E0,4E0,5E0,5E0,6E0,4E0,5E0,4E0,4E0,1E1,1.1E1,4E0,6E0,3E0,7E0,3E0,5E0,3E0,5E0,7E0,5E0,4E0,8E0,1.5E1,1.6E1,8E0,3E0,1.3E1,1.7E1,5E0,1E1,1E1,3E0,7E0,5E0,4E0,8E0,1.1E1,1.1E1,3E0,1E1,3E1,3.4E1,8E0,2.4E1,5E0,5E0,6E0,6E0,6E0,1.6E1,3E0,3E0,4E0,4E0,3E1,1E1,3.5E1,1.4E1,1.6E1,3E0,1.1E1,2E1,3.2E1,3.2E1,1.18E2,6.8E1,7E0,1E1,4E0,9E0,1.7E1,1.4E1,3E0,1.6E1,5E0,3E0,3E0,4E0,2.6E1,3.7E1,2.1E1,2E1,8.2E1,8.8E1,7.3E1,4.8E1,4.8E1,3.2E1,3.7E1,1.22E2,1.2E2,6.8E1,3.7E1,2.5E1,3E0,1E1,3E0,3E0,8E0,6E0,3E0,3E0,4E0,4E0,3E0,3E0,3E0,7E0,3E0,8E0,4E0,3E0,4E0,3E0,5E0,1E1,3E0,1.3E1,5E0,3E0,3E0,1E1,5E0,1.2E1,3E0,7E0,5E0,5E0,4E0,3E0,3E0,7E0,1.2E1,2.2E1,1.4E1,1E1,3E0,3E0,3E0,3E0,3E0,1.3E1,1.4E1,1.8E1,9.8E1,2E1],"tree_param":{"num_deleted":"0","num_feature":"7","num_nodes":"367","size_leaf_vector":"1"}},{"base_weights":[-1.6828239E-1,1.2497637E1,-1.4144233E1,-3.485105E0,9.6739845E1,-1.3240514E1,-1.4733743E1,-5.288143E0,1.329231E1,1.0357648E1,1.5827475E2,-1.3893814E1,-1.2657885E1,-1.5239395E1,-1.4573931E1,-1.4900318E1,-2.9970326E0,9.219273E0,2.082607E1,4.829763E-1,1.969978E1,2.8186755E2,1.1148783E2,-1.4171049E1,-1.2292518E1,-1.3365235E1,-1.1247876E1,-1.5517593E1,-1.5095603E1,-1.4908253E1,-1.4241809E1,-1.3928207E1,-1.5129574E1,9.931871E0,-4.1281657E0,1.5762015E1,7.001183E0,2.409606E1,1.5541745E1,1.28906145E1,-3.5492208E0,6.9622064E0,2.9963232E1,3.5080292E2,2.8984625E1,1.4005965E2,2.6769468E1,-1.439995E1,-1.352482E1,-9.830241E0,-1.3188443E1,-1.2512837E1,-1.3695507E1,-9.423636E0,-1.3455648E1,-4.6099535E-1,-4.8118925E-1,-1.47090025E1,-4.5902324E-1,-1.4995153E1,-1.4643619E1,-1.3516456E1,-1.4654731E1,-4.4097292E-1,-1.3648947E1,-1.4886299E1,-1.5473086E1,5.4864926E0,2.3475761E1,-2.004999E-1,-7.2215147E0,1.1515807E1,2.481736E1,4.006758E0,9.563099E0,2.0423716E1,3.0072262E1,1.1191661E1,1.8997166E1,2.8764325E-1,1.3860808E1,-2.4814231E0,-5.1421213E0,2.7446096E1,-1.0090141E0,4.3238617E1,2.3619291E1,2.8704483E2,4.1060062E2,6.6252404E-1,1.1252615E0,1.1691969E2,1.6372726E2,2.4248114E1,1.427915E0,-1.4317731E1,-4.4786796E-1,-4.2672458E-1,-1.2771041E1,-1.15651865E1,-1.544234E-1,-4.3654606E-1,-1.2592853E1,-1.0595347E1,-4.32677E-1,-1.38787E1,-1.2820015E1,-4.4271917E0,-1.1542989E1,-4.1285774E-1,-3.919596E-1,-4.474426E-1,-3.424054E-1,-1.4769207E1,-1.5112024E1,-4.5900968E-1,-4.3097463E-1,-1.1534654E1,-1.4195978E1,-1.4563479E1,-4.6380958E-1,-4.2189908E-1,-1.3168057E1,-4.348699E-1,-4.519029E-1,-4.7251454E-1,-4.560901E-1,-1.9517972E0,8.8534775E0,2.7205454E1,1.8881016E1,7.872989E0,-3.1074548E0,-1.1035248E1,-3.7716827E0,6.5204873E0,1.4823989E1,8.616275E-1,5.8503795E-1,2.2685065E0,6.601749E0,7.2847853E0,1.2965793E1,2.565669E1,1.6205896E1,2.6059435E1,1.1096182E0,4.3590397E-1,2.7430844E-1,1.587611E1,7.85084E-1,4.7434187E-1,3.7558898E-1,-1.6310109E0,-3.3214428E0,-1.8696235E-1,-4.7655888E0,9.654135E-1,7.139698E-1,-6.573239E0,5.9333053E0,1.1334293E0,1.4576998E0,1.577498E1,3.221366E1,7.714419E0,3.003796E2,1.17765E1,1.2533408E1,1.2608567E2,8.748192E1,1.7962334E2,1.329571E2,1.9661518E1,3.0053356E1,-4.3068132E-1,-3.94579E-1,-1.1698575E1,-1.3695309E1,-3.0932406E-1,-4.0744212E-1,-1.1832688E1,-4.1397965E-1,-3.539512E-1,-9.45875E0,-4.0731028E-1,-4.224624E-1,-1.3906849E1,-1.1872044E1,-1.6153678E-1,-4.015811E0,-1.0806237E1,-3.916799E-1,-4.2170843E-1,-4.5576334E-1,-4.608876E-1,-4.427159E-1,-3.763588E-1,-1.0510563E1,-1.3379088E1,-1.4544218E1,-1.4736861E1,-4.279686E-1,-4.2208764E-1,-1.2736781E1,1.3942195E0,-3.5036838E0,6.209854E-1,7.5987773E0,9.9582607E-1,2.4908552E1,7.270723E-1,1.6151142E1,3.3567994E0,1.5248048E1,-8.681505E0,-7.929261E-1,-1.250727E1,-1.0311298E1,-6.0831E0,2.411555E0,1.3008334E-1,2.594993E-1,3.4319258E-1,1.6477617E1,9.841549E-1,4.268225E0,3.334344E-1,4.321841E0,1.3353802E-1,7.7487516E0,5.3560245E-1,1.1608718E1,6.498397E-1,9.656497E-1,3.7589547E-1,5.948891E-1,6.5270346E-1,8.7597543E-1,3.892473E-1,5.396787E-1,-9.530782E-2,-1.1016526E0,-1.36232E-1,-8.697641E-2,-1.2023732E-1,-1.5379402E-1,-2.0691197E-2,-9.075907E0,3.3719048E-1,8.140317E-2,2.5714695E-1,1.8449703E1,2.8421858E1,1.2271249E0,9.885296E0,8.671367E0,1.3509648E2,1.1578356E2,2.374189E0,2.7865758E0,1.9550307E2,1.6474171E2,3.4852185E0,1.3953761E2,1.7506163E1,8.234055E-1,3.299685E1,7.932717E-1,-4.0097892E-1,-1.1008943E1,-3.8607955E-1,-4.2502683E-1,-3.9529037E-1,-1.0649563E1,-3.037465E-1,-2.731773E-1,-3.7355396E-1,-4.3099228E-1,-1.2908268E1,-2.7692443E-1,-8.462414E-2,-1.3198423E-1,-2.9479694E-1,-3.4111562E-1,-3.0807602E-1,-3.4456936E-1,-4.267153E-1,-3.9087743E-1,-1.4202129E1,-4.466798E-1,-1.4556509E1,-4.6433362E-1,-3.4232172E-1,-4.1413096E-1,5.0810687E-2,3.1706847E-2,-3.13821E-2,-1.6774341E-1,2.888996E-1,1.2315536E-1,6.961992E-1,8.287598E-1,4.1889822E-1,5.4756385E-1,-4.0605616E-2,1.9614924E-1,2.4580355E-1,5.4479736E-1,-2.3794073E-1,-3.084596E-1,2.3912987E-2,-1.3412917E-1,-3.428074E-1,-4.099482E-1,-2.5112844E-1,-3.3045912E-1,-2.3250213E-1,6.745653E-2,-5.7320263E-2,2.3350741E-1,6.086644E-1,3.773537E-1,9.0465225E-2,6.2129856E-3,1.01624675E-1,1.4681233E-1,1.0151613E-1,1.7506394E-1,2.1494043E-1,2.665917E-1,2.997138E-1,4.315126E-1,-1.35092E-3,-4.837112E-2,-2.4645975E-1,-3.047706E-1,6.4581084E-1,4.963219E-1,9.609578E-1,7.045434E-1,3.5601869E0,4.2548037E0,3.003605E0,3.5881336E0,5.0451307E0,6.1054945E0,4.329426E0,5.182512E0,4.5162044E0,3.9584303E0,4.987058E-1,5.9290767E-1,1.0506207E0,9.249048E-1,-3.8798383E-1,-3.0458686E-1,-3.49261E-1,-2.7776292E-1,-3.5685283E-1,-4.0638486E-1,-4.3987513E-1,-4.155033E-1,-4.1839182E-1,-4.4062498E-1],"categories":[],"categories_nodes":[],"categories_segments":[],"categories_sizes":[],"default_left":[0,0,0,0,0,0,0,0,0,0,0,0,0,0,0,0,0,0,0,0,0,0,0,0,0,0,0,0,0,0,0,0,0,0,0,0,0,0,0,0,0,0,0,0,0,0,0,0,0,0,0,0,0,0,0,0,0,0,0,0,0,0,0,0,0,0,0,0,0,0,0,0,0,0,0,0,0,0,0,0,0,0,0,0,0,0,0,0,0,0,0,0,0,0,0,0,0,0,0,0,0,0,0,0,0,0,0,0,0,0,0,0,0,0,0,0,0,0,0,0,0,0,0,0,0,0,0,0,0,0,0,0,0,0,0,0,0,0,0,0,0,0,0,0,0,0,0,0,0,0,0,0,0,0,0,0,0,0,0,0,0,0,0,0,0,0,0,0,0,0,0,0,0,0,0,0,0,0,0,0,0,0,0,0,0,0,0,0,0,0,0,0,0,0,0,0,0,0,0,0,0,0,0,0,0,0,0,0,0,0,0,0,0,0,0,0,0,0,0,0,0,0,0,0,0,0,0,0,0,0,0,0,0,0,0,0,0,0,0,0,0,0,0,0,0,0,0,0,0,0,0,0,0,0,0,0,0,0,0,0,0,0,0,0,0,0,0,0,0,0,0,0,0,0,0,0,0,0,0,0,0,0,0,0,0,0,0,0,0,0,0,0,0,0,0,0,0,0,0,0,0,0,0,0,0,0,0,0,0,0,0,0,0,0,0,0,0,0,0,0,0,0,0,0,0,0,0,0,0,0,0,0,0,0,0,0,0,0,0,0,0,0,0,0,0,0,0,0,0,0,0,0,0,0,0,0,0,0,0,0,0,0,0,0,0],"id":3,"left_children":[1,3,5,7,9,11,13,15,17,19,21,23,25,27,29,31,33,35,37,39,41,43,45,47,49,51,53,55,57,59,61,63,65,67,69,71,73,75,77,79,81,83,85,87,89,91,93,95,97,99,101,103,105,107,109,-1,-1,111,-1,113,115,117,119,-1,121,123,125,127,129,131,133,135,137,139,141,143,145,147,149,-1,151,153,155,157,159,161,163,165,167,-1,-1,169,171,173,-1,175,-1,-1,177,179,-1,-1,181,183,-1,185,187,189,191,-1,-1,-1,-1,193,195,-1,-1,197,199,201,-1,-1,203,-1,-1,-1,-1,205,207,209,211,213,215,217,219,221,223,-1,-1,225,227,229,231,233,235,237,-1,-1,-1,239,-1,-1,-1,241,243,-1,245,-1,-1,247,249,-1,-1,251,253,-1,255,-1,-1,257,259,261,263,265,267,-1,-1,269,271,-1,-1,273,-1,-1,275,-1,-1,277,279,-1,281,283,-1,-1,-1,-1,-1,-1,285,287,289,291,-1,-1,293,295,297,-1,299,-1,301,-1,303,305,307,309,311,313,315,317,319,-1,-1,-1,321,323,325,-1,327,-1,329,-1,331,-1,-1,-1,-1,-1,-1,-1,-1,-1,333,-1,-1,-1,-1,-1,335,-1,-1,-1,337,339,-1,-1,-1,341,343,-1,-1,345,347,-1,349,351,-1,353,-1,-1,355,-1,-1,-1,357,-1,-1,-1,-1,359,-1,-1,-1,-1,-1,-1,-1,-1,-1,361,-1,363,-1,-1,-1,-1,-1,-1,-1,-1,-1,-1,-1,-1,-1,-1,-1,-1,-1,-1,-1,-1,-1,-1,-1,-1,-1,-1,-1,-1,-1,-1,-1,-1,-1,-1,-1,-1,-1,-1,-1,-1,-1,-1,-1,-1,-1,-1,-1,-1,-1,-1,-1,-1,-1,-1,-1,-1,-1,-1,-1,-1,-1,-1,-1,-1,-1,-1,-1,-1,-1,-1,-1,-1,-1],"loss_changes":[5.5442494E5,2.2121965E6,7.885E2,4.177589E4,1.3926868E6,2.1940625E2,6.7625E1,2.7460113E4,4.107211E3,1.0054111E4,8.844305E5,1.1858594E2,3.0623047E2,3.2382812E0,7.1015625E1,4.8476562E1,1.4726658E4,1.2593433E3,8.046074E2,2.6534841E3,7.316492E3,7.3220325E5,2.6865188E5,3.0175781E1,8.687012E1,5.3945312E1,4.153457E2,1.5234375E-1,6.0898438E0,2.6796875E0,9.8234375E1,5.064453E0,1.0875E1,4.873244E3,1.1249931E4,8.39812E2,4.9698218E2,6.254824E2,2.6556982E2,3.8010986E1,6.716287E1,4.086593E3,2.594709E3,1.246045E5,5.1573E2,4.5242375E4,1.4521914E3,2.5039062E0,2.8170898E1,8.718298E1,1.9816895E1,2.0839551E2,1.9449219E1,6.015835E2,1.1386719E0,0E0,0E0,2.9574219E1,0E0,1.5390625E0,1.0345703E1,1.6413672E2,1.084375E1,0E0,2.2011719E0,2.75E0,5.058594E-1,1.5288346E3,3.3316504E2,9.575463E3,6.8134277E3,2.4494568E2,1.3504639E2,1.3433072E2,2.684419E2,3.8916748E2,2.895703E2,5.1071167E1,2.1571582E2,0E0,2.137439E1,1.6602417E1,5.173767E0,1.077832E2,6.961555E2,2.6535547E2,1.4065488E3,5.554625E3,4.835E2,0E0,0E0,1.120375E4,1.9788875E4,6.55042E2,0E0,2.1035156E0,0E0,0E0,2.5605469E1,1.6468628E1,0E0,0E0,1.507251E1,3.6425537E1,0E0,2.8691406E0,2.2568848E1,5.5429993E0,4.0802246E1,0E0,0E0,0E0,0E0,2.1451172E1,9.675781E0,0E0,0E0,2.9505371E1,2.1720703E1,5.171875E0,0E0,0E0,1.7521973E0,0E0,0E0,0E0,0E0,9.897184E1,6.20001E2,1.373706E2,1.2375293E2,3.5951348E3,3.8695024E3,2.585918E2,3.8880918E3,2.6282501E1,4.5745728E1,0E0,0E0,4.56886E1,1.21542175E2,2.605603E1,8.7907715E1,1.9667383E2,1.276228E2,8.3251465E1,0E0,0E0,0E0,3.7546143E1,0E0,0E0,0E0,9.365454E0,5.3090057E0,0E0,2.1650085E0,0E0,0E0,1.463533E2,1.3515717E2,0E0,0E0,2.0784766E2,3.1129688E2,0E0,2.6208125E3,0E0,0E0,2.7899688E3,3.6054688E2,6.0248125E3,1.3595938E3,2.2579004E2,1.0235449E2,0E0,0E0,1.2200928E1,1.7177734E0,0E0,0E0,1.6896484E1,0E0,0E0,6.828613E-1,0E0,0E0,3.5600586E0,3.49386E1,0E0,4.6602325E0,1.1694336E1,0E0,0E0,0E0,0E0,0E0,0E0,4.1296387E-1,3.699707E0,2.6523438E0,1.1314453E1,0E0,0E0,1.1489868E1,3.141632E-1,6.6030975E1,0E0,2.6795898E2,0E0,2.5541992E1,0E0,2.1855957E1,1.0048138E3,8.383047E2,1.0302783E2,1.2402773E3,9.724902E1,2.2254688E2,2.7508115E3,1.7191841E3,0E0,0E0,0E0,8.3472534E1,1.7050488E1,2.8680344E0,0E0,1.025267E1,0E0,9.725098E0,0E0,4.556836E1,0E0,0E0,0E0,0E0,0E0,0E0,0E0,0E0,0E0,4.695654E0,0E0,0E0,0E0,0E0,0E0,3.8620605E0,0E0,0E0,0E0,3.9604004E1,1.118667E2,0E0,0E0,0E0,1.6858125E3,7.566094E2,0E0,0E0,2.4700312E3,2.0109688E3,0E0,6.0903125E2,1.5013428E1,0E0,8.972168E0,0E0,0E0,1.2863892E1,0E0,0E0,0E0,6.5080566E0,0E0,0E0,0E0,0E0,2.3138428E0,0E0,0E0,0E0,0E0,0E0,0E0,0E0,0E0,0E0,4.6728516E-1,0E0,3.0820312E0,0E0,0E0,0E0,0E0,0E0,0E0,0E0,0E0,0E0,0E0,0E0,0E0,0E0,0E0,0E0,0E0,0E0,0E0,0E0,0E0,0E0,0E0,0E0,0E0,0E0,0E0,0E0,0E0,0E0,0E0,0E0,0E0,0E0,0E0,0E0,0E0,0E0,0E0,0E0,0E0,0E0,0E0,0E0,0E0,0E0,0E0,0E0,0E0,0E0,0E0,0E0,0E0,0E0,0E0,0E0,0E0,0E0,0E0,0E0,0E0,0E0,0E0,0E0,0E0,0E0,0E0,0E0,0E0,0E0,0E0,0E0,0E0,0E0],"parents":[2147483647,0,0,1,1,2,2,3,3,4,4,5,5,6,6,7,7,8,8,9,9,10,10,11,11,12,12,13,13,14,14,15,15,16,16,17,17,18,18,19,19,20,20,21,21,22,22,23,23,24,24,25,25,26,26,27,27,28,28,29,29,30,30,31,31,32,32,33,33,34,34,35,35,36,36,37,37,38,38,39,39,40,40,41,41,42,42,43,43,44,44,45,45,46,46,47,47,48,48,49,49,50,50,51,51,52,52,53,53,54,54,57,57,59,59,60,60,61,61,62,62,64,64,65,65,66,66,67,67,68,68,69,69,70,70,71,71,72,72,73,73,74,74,75,75,76,76,77,77,78,78,80,80,81,81,82,82,83,83,84,84,85,85,86,86,87,87,88,88,91,91,92,92,93,93,95,95,98,98,99,99,102,102,103,103,105,105,106,106,107,107,108,108,113,113,114,114,117,117,118,118,119,119,122,122,127,127,128,128,129,129,130,130,131,131,132,132,133,133,134,134,135,135,136,136,139,139,140,140,141,141,142,142,143,143,144,144,145,145,149,149,153,153,154,154,156,156,159,159,160,160,163,163,164,164,166,166,169,169,170,170,171,171,172,172,173,173,174,174,177,177,178,178,181,181,184,184,187,187,188,188,190,190,191,191,198,198,199,199,200,200,201,201,204,204,205,205,206,206,208,208,210,210,212,212,213,213,214,214,215,215,216,216,217,217,218,218,219,219,220,220,224,224,225,225,226,226,228,228,230,230,232,232,242,242,248,248,252,252,253,253,257,257,258,258,261,261,262,262,264,264,265,265,267,267,270,270,274,274,279,279,289,289,291,291],"right_children":[2,4,6,8,10,12,14,16,18,20,22,24,26,28,30,32,34,36,38,40,42,44,46,48,50,52,54,56,58,60,62,64,66,68,70,72,74,76,78,80,82,84,86,88,90,92,94,96,98,100,102,104,106,108,110,-1,-1,112,-1,114,116,118,120,-1,122,124,126,128,130,132,134,136,138,140,142,144,146,148,150,-1,152,154,156,158,160,162,164,166,168,-1,-1,170,172,174,-1,176,-1,-1,178,180,-1,-1,182,184,-1,186,188,190,192,-1,-1,-1,-1,194,196,-1,-1,198,200,202,-1,-1,204,-1,-1,-1,-1,206,208,210,212,214,216,218,220,222,224,-1,-1,226,228,230,232,234,236,238,-1,-1,-1,240,-1,-1,-1,242,244,-1,246,-1,-1,248,250,-1,-1,252,254,-1,256,-1,-1,258,260,262,264,266,268,-1,-1,270,272,-1,-1,274,-1,-1,276,-1,-1,278,280,-1,282,284,-1,-1,-1,-1,-1,-1,286,288,290,292,-1,-1,294,296,298,-1,300,-1,302,-1,304,306,308,310,312,314,316,318,320,-1,-1,-1,322,324,326,-1,328,-1,330,-1,332,-1,-1,-1,-1,-1,-1,-1,-1,-1,334,-1,-1,-1,-1,-1,336,-1,-1,-1,338,340,-1,-1,-1,342,344,-1,-1,346,348,-1,350,352,-1,354,-1,-1,356,-1,-1,-1,358,-1,-1,-1,-1,360,-1,-1,-1,-1,-1,-1,-1,-1,-1,362,-1,364,-1,-1,-1,-1,-1,-1,-1,-1,-1,-1,-1,-1,-1,-1,-1,-1,-1,-1,-1,-1,-1,-1,-1,-1,-1,-1,-1,-1,-1,-1,-1,-1,-1,-1,-1,-1,-1,-1,-1,-1,-1,-1,-1,-1,-1,-1,-1,-1,-1,-1,-1,-1,-1,-1,-1,-1,-1,-1,-1,-1,-1,-1,-1,-1,-1,-1,-1,-1,-1,-1,-1,-1,-1],"split_conditions":[5E0,4E0,6E0,1.28E2,2E0,3E0,3E0,1E0,1.024E3,4E0,1.6E1,2.048E3,4E0,1E1,2E0,2E0,2.0834829E-1,4.882539E-1,8.009878E0,1.6E1,3.2E1,4E0,4E0,1.024E3,2E0,1.6E1,4E0,2.048E3,1.1E1,6.4E1,4E0,1.6E1,4.3456383E0,8E0,4E0,8E0,2.56E2,2.048E3,2.048E3,6E0,6.4E1,8.582708E-1,8.783238E-1,4E0,4E0,4E0,3.6866899E0,4.616857E0,3.2E1,6.4E1,1.6E1,4E0,2.048E3,1.6E1,1.024E3,-4.6099535E-1,-4.8118925E-1,1.4878193E1,-4.5902324E-1,4E0,4E0,1.6E1,1.9021017E1,-4.4097292E-1,5.12E2,4E0,1.024E3,4E0,1.1E1,1.6E1,1E0,4E0,1.1E1,5.12E2,5.12E2,1.5703602E0,2.56E2,2E0,2.56E2,2.8764325E-1,1.1E1,3.2E1,6E0,4.3575555E-1,1.6E1,6.4E1,6.4E1,6E0,1E1,6.6252404E-1,1.1252615E0,6.4E1,6.4E1,4E0,1.427915E0,4.3826256E0,-4.4786796E-1,-4.2672458E-1,1.2E1,1.1E1,-1.544234E-1,-4.3654606E-1,1.1E1,2E0,-4.32677E-1,1.1E1,4E0,6E0,6.4E1,-4.1285774E-1,-3.919596E-1,-4.474426E-1,-3.424054E-1,1.6E1,3.2E1,-4.5900968E-1,-4.3097463E-1,4E0,3.2E1,1.024E3,-4.6380958E-1,-4.2189908E-1,6E0,-4.348699E-1,-4.519029E-1,-4.7251454E-1,-4.560901E-1,1.3889824E-1,6.678458E-2,1.6E1,1.6E1,4E0,2E0,1E1,6.4E1,2.56E2,6E0,8.616275E-1,5.8503795E-1,4E0,1.0477897E0,6.523439E-1,1.2474205E0,2.56E2,2.56E2,4E0,1.1096182E0,4.3590397E-1,2.7430844E-1,1E1,7.85084E-1,4.7434187E-1,3.7558898E-1,6E0,6E0,-1.8696235E-1,1.1E1,9.654135E-1,7.139698E-1,1.024E3,1.4503268E0,1.1334293E0,1.4576998E0,6E0,1.024E3,7.714419E0,1.1E1,1.17765E1,1.2533408E1,3.2E1,6E0,3.2E1,6E0,2.158237E0,7.704831E-1,-4.3068132E-1,-3.94579E-1,8.009878E0,2E0,-3.0932406E-1,-4.0744212E-1,2E0,-4.1397965E-1,-3.539512E-1,6E0,-4.0731028E-1,-4.224624E-1,1.1458348E1,6.4E1,-1.6153678E-1,1.1E1,3.2E1,-3.916799E-1,-4.2170843E-1,-4.5576334E-1,-4.608876E-1,-4.427159E-1,-3.763588E-1,4.6889677E0,4E0,6.4E1,3.3632517E0,-4.279686E-1,-4.2208764E-1,1.1E1,1.1E1,4E0,6.209854E-1,4E0,9.9582607E-1,6.4E1,7.270723E-1,8.5427634E-2,2E0,5.12E2,6.4E1,6.4E1,4E0,1.1E1,8E0,1.024E3,1.3008334E-1,2.594993E-1,3.4319258E-1,1.1E1,7.079537E-1,8E0,3.334344E-1,2E0,1.3353802E-1,4E0,5.3560245E-1,1.1E1,6.498397E-1,9.656497E-1,3.7589547E-1,5.948891E-1,6.5270346E-1,8.7597543E-1,3.892473E-1,5.396787E-1,-9.530782E-2,1.1E1,-1.36232E-1,-8.697641E-2,-1.2023732E-1,-1.5379402E-1,-2.0691197E-2,5.471283E0,3.3719048E-1,8.140317E-2,2.5714695E-1,1.1E1,1.8192434E0,1.2271249E0,9.885296E0,8.671367E0,6E0,6E0,2.374189E0,2.7865758E0,6E0,6E0,3.4852185E0,1.1E1,1.0297548E0,8.234055E-1,6.4E1,7.932717E-1,-4.0097892E-1,1E1,-3.8607955E-1,-4.2502683E-1,-3.9529037E-1,6.4E1,-3.037465E-1,-2.731773E-1,-3.7355396E-1,-4.3099228E-1,1.1E1,-2.7692443E-1,-8.462414E-2,-1.3198423E-1,-2.9479694E-1,-3.4111562E-1,-3.0807602E-1,-3.4456936E-1,-4.267153E-1,-3.9087743E-1,4E0,-4.466798E-1,4.882539E-1,-4.6433362E-1,-3.4232172E-1,-4.1413096E-1,5.0810687E-2,3.1706847E-2,-3.13821E-2,-1.6774341E-1,2.888996E-1,1.2315536E-1,6.961992E-1,8.287598E-1,4.1889822E-1,5.4756385E-1,-4.0605616E-2,1.9614924E-1,2.4580355E-1,5.4479736E-1,-2.3794073E-1,-3.084596E-1,2.3912987E-2,-1.3412917E-1,-3.428074E-1,-4.099482E-1,-2.5112844E-1,-3.3045912E-1,-2.3250213E-1,6.745653E-2,-5.7320263E-2,2.3350741E-1,6.086644E-1,3.773537E-1,9.0465225E-2,6.2129856E-3,1.01624675E-1,1.4681233E-1,1.0151613E-1,1.7506394E-1,2.1494043E-1,2.665917E-1,2.997138E-1,4.315126E-1,-1.35092E-3,-4.837112E-2,-2.4645975E-1,-3.047706E-1,6.4581084E-1,4.963219E-1,9.609578E-1,7.045434E-1,3.5601869E0,4.2548037E0,3.003605E0,3.5881336E0,5.0451307E0,6.1054945E0,4.329426E0,5.182512E0,4.5162044E0,3.9584303E0,4.987058E-1,5.9290767E-1,1.0506207E0,9.249048E-1,-3.8798383E-1,-3.0458686E-1,-3.49261E-1,-2.7776292E-1,-3.5685283E-1,-4.0638486E-1,-4.3987513E-1,-4.155033E-1,-4.1839182E-1,-4.4062498E-1],"split_indices":[0,0,0,5,3,1,1,1,4,1,5,4,3,2,3,3,6,6,6,5,5,1,1,4,3,5,1,4,2,5,1,5,6,3,1,3,5,4,4,2,5,6,6,3,3,3,6,6,5,5,5,1,4,5,4,0,0,6,0,1,1,5,6,0,4,3,4,3,2,5,0,3,2,4,4,6,5,3,5,0,2,5,2,6,5,5,5,2,2,0,0,5,5,3,0,6,0,0,2,2,0,0,2,3,0,2,1,2,5,0,0,0,0,5,5,0,0,3,5,4,0,0,2,0,0,0,0,6,6,5,5,3,3,2,5,5,2,0,0,3,6,6,6,5,5,3,0,0,0,2,0,0,0,2,2,0,2,0,0,4,6,0,0,2,4,0,2,0,0,5,2,5,2,6,6,0,0,6,3,0,0,1,0,0,2,0,0,6,5,0,2,5,0,0,0,0,0,0,6,3,5,6,0,0,2,2,1,0,1,0,5,0,6,3,4,5,5,3,2,3,4,0,0,0,2,6,3,0,3,0,3,0,2,0,0,0,0,0,0,0,0,0,2,0,0,0,0,0,6,0,0,0,2,6,0,0,0,2,2,0,0,2,2,0,2,6,0,5,0,0,2,0,0,0,5,0,0,0,0,2,0,0,0,0,0,0,0,0,0,3,0,6,0,0,0,0,0,0,0,0,0,0,0,0,0,0,0,0,0,0,0,0,0,0,0,0,0,0,0,0,0,0,0,0,0,0,0,0,0,0,0,0,0,0,0,0,0,0,0,0,0,0,0,0,0,0,0,0,0,0,0,0,0,0,0,0,0,0,0,0,0,0,0,0,0],"split_type":[0,0,0,0,0,0,0,0,0,0,0,0,0,0,0,0,0,0,0,0,0,0,0,0,0,0,0,0,0,0,0,0,0,0,0,0,0,0,0,0,0,0,0,0,0,0,0,0,0,0,0,0,0,0,0,0,0,0,0,0,0,0,0,0,0,0,0,0,0,0,0,0,0,0,0,0,0,0,0,0,0,0,0,0,0,0,0,0,0,0,0,0,0,0,0,0,0,0,0,0,0,0,0,0,0,0,0,0,0,0,0,0,0,0,0,0,0,0,0,0,0,0,0,0,0,0,0,0,0,0,0,0,0,0,0,0,0,0,0,0,0,0,0,0,0,0,0,0,0,0,0,0,0,0,0,0,0,0,0,0,0,0,0,0,0,0,0,0,0,0,0,0,0,0,0,0,0,0,0,0,0,0,0,0,0,0,0,0,0,0,0,0,0,0,0,0,0,0,0,0,0,0,0,0,0,0,0,0,0,0,0,0,0,0,0,0,0,0,0,0,0,0,0,0,0,0,0,0,0,0,0,0,0,0,0,0,0,0,0,0,0,0,0,0,0,0,0,0,0,0,0,0,0,0,0,0,0,0,0,0,0,0,0,0,0,0,0,0,0,0,0,0,0,0,0,0,0,0,0,0,0,0,0,0,0,0,0,0,0,0,0,0,0,0,0,0,0,0,0,0,0,0,0,0,0,0,0,0,0,0,0,0,0,0,0,0,0,0,0,0,0,0,0,0,0,0,0,0,0,0,0,0,0,0,0,0,0,0,0,0,0,0,0,0,0,0,0,0,0,0,0,0,0,0,0,0,0,0,0,0,0,0,0,0,0],"sum_hessian":[3.132E3,1.643E3,1.489E3,1.381E3,2.62E2,5.88E2,9.01E2,1.247E3,1.34E2,1.09E2,1.53E2,2.77E2,3.11E2,2.16E2,6.85E2,2.4E2,1.007E3,8.7E1,4.7E1,5.3E1,5.6E1,4.2E1,1.11E2,2.36E2,4.1E1,2.07E2,1.04E2,7.3E1,1.43E2,3.41E2,3.44E2,4.6E1,1.94E2,8.1E1,9.26E2,2.2E1,6.5E1,2.9E1,1.8E1,1.3E1,4E1,2.5E1,3.1E1,3.3E1,9E0,8.3E1,2.8E1,1.74E2,6.2E1,1.1E1,3E1,5.8E1,1.49E2,5.7E1,4.7E1,5.7E1,1.6E1,5E1,9.3E1,2.56E2,8.5E1,1.25E2,2.19E2,1.2E1,3.4E1,1.14E2,8E1,6.1E1,2E1,4.08E2,5.18E2,1.5E1,7E0,3E1,3.5E1,1.8E1,1.1E1,8E0,1E1,3E0,1E1,2.4E1,1.6E1,7E0,1.8E1,1E1,2.1E1,1.6E1,1.7E1,5E0,4E0,4.2E1,4.1E1,2.5E1,3E0,1.51E2,2.3E1,3.2E1,3E1,8E0,3E0,9E0,2.1E1,2.9E1,2.9E1,1.23E2,2.6E1,1.7E1,4E1,2.6E1,2.1E1,4.7E1,3E0,8.8E1,1.68E2,2.5E1,6E1,3.2E1,9.3E1,1.97E2,2.2E1,1.8E1,1.6E1,3.6E1,7.8E1,3.9E1,4.1E1,1.9E1,4.2E1,1.1E1,9E0,1.08E2,3E2,2.46E2,2.72E2,6E0,9E0,4E0,3E0,1.8E1,1.2E1,2.1E1,1.4E1,8E0,1E1,7E0,4E0,3E0,5E0,7E0,3E0,4E0,6E0,1.2E1,1.2E1,4E0,1.2E1,3E0,4E0,1E1,8E0,5E0,5E0,1.1E1,1E1,5E0,1.1E1,5E0,1.2E1,3.2E1,1E1,2.7E1,1.4E1,1.4E1,1.1E1,1.46E2,5E0,1.4E1,1.6E1,5E0,3E0,1.3E1,8E0,1.4E1,1.5E1,5E1,7.3E1,1.2E1,1.4E1,5E0,1.2E1,2.7E1,1.3E1,3.3E1,5.5E1,9.8E1,7E1,1.6E1,1.6E1,2.8E1,6.5E1,1.24E2,7.3E1,5E0,1.1E1,6E0,1.3E1,4E0,3.8E1,3E0,8E0,3E0,6E0,6.7E1,4.1E1,8.8E1,2.12E2,8.1E1,1.65E2,1.98E2,7.4E1,3E0,3E0,3E0,6E0,1.1E1,7E0,4E0,8E0,3E0,1.8E1,3E0,1.1E1,5E0,3E0,5E0,5E0,3E0,4E0,3E0,4E0,3E0,9E0,3E0,9E0,4E0,8E0,3E0,7E0,3E0,5E0,3E0,8E0,7E0,3E0,3E0,8E0,1.7E1,1.5E1,4E0,6E0,1.3E1,1.4E1,4E0,1E1,1.1E1,3E0,6E0,5E0,4E0,1E1,6E0,1E1,6E0,7E0,5E0,1E1,3E0,9E0,1E1,4E0,3E0,9E0,1E1,1.7E1,1.3E1,3E0,8E0,2E1,3.3E1,3.2E1,1E2,2.4E1,5E0,6E0,3E0,3E0,6E0,7E0,2.4E1,1.4E1,5E0,3E0,3E0,3E0,2.7E1,4E1,1.2E1,2.9E1,6E1,2.8E1,1.48E2,6.4E1,4.2E1,3.9E1,4.4E1,1.21E2,1.65E2,3.3E1,4.1E1,3.3E1,3E0,3E0,3E0,8E0,3E0,4E0,5E0,3E0,1.2E1,6E0,7E0,4E0,3E0,6E0,4E0,3E0,3E0,5E0,4E0,3E0,5E0,1.2E1,3E0,1.2E1,3E0,1E1,4E0,1E1,4E0,6E0,8E0,3E0,3E0,3E0,3E0,7E0,4E0,3E0,4E0,6E0,1.4E1,1.9E1,1.8E1,8.2E1],"tree_param":{"num_deleted":"0","num_feature":"7","num_nodes":"365","size_leaf_vector":"1"}},{"base_weights":[3.0923966E-1,1.30231695E1,-1.3731136E1,-3.3101351E0,9.6399925E1,-1.2856815E1,-1.4293634E1,-5.170862E0,1.3754152E1,1.0050958E1,1.5689406E2,-1.3453386E1,-1.2347466E1,-1.477889E1,-1.4131036E1,-1.4467152E1,-2.9147127E0,9.549143E0,2.0813248E1,2.4438985E-1,2.1391579E1,2.820133E2,1.096785E2,-1.3723069E1,-1.1667208E1,-1.3035021E1,-1.0950231E1,-4.507301E-1,-1.4652024E1,-1.44574175E1,-1.38144455E1,-1.3499937E1,-1.4695269E1,1.474023E1,-3.756568E0,5.319931E0,1.4915793E1,1.7428457E1,2.477305E1,1.263024E1,-3.2557702E0,1.4290469E1,3.6900383E1,3.4005533E2,2.7959356E1,1.3543123E2,2.6674356E1,-1.3928855E1,-1.3205059E1,-7.9489207E0,-1.2946911E1,-1.2313308E1,-1.3297701E1,-9.233177E0,-1.2913272E1,-1.4295925E1,-4.459144E-1,-1.4567713E1,-1.4135359E1,-1.3105519E1,-1.4237377E1,-4.2923212E-1,-1.32077675E1,-1.45698805E1,-4.5898142E-1,9.947542E0,2.340909E1,-1.12787895E-1,-6.689457E0,2.5538504E0,8.199566E0,1.9421503E1,8.292219E0,2.488938E1,1.4270315E1,2.0079418E1,3.0838629E1,2.7904263E-1,1.3608606E1,-2.4257202E0,-4.961786E0,3.2293957E1,6.024692E0,1.5639478E0,3.334043E1,2.8485312E2,3.9829706E2,5.831337E-1,1.0915878E0,1.1249783E2,1.5781049E2,2.421452E1,1.3852199E0,-4.2916542E-1,-1.383641E1,-1.3491481E1,-1.1897676E1,-9.9240586E-2,-3.4883E-1,-4.3198836E-1,-1.1866051E1,-1.0241308E1,-4.193163E-1,-1.3471714E1,-1.2477251E1,-4.127007E0,-1.1143981E1,-1.3135542E1,-3.3964413E-1,-1.4474388E1,-3.3216736E-1,-1.4353258E1,-1.4679414E1,-4.4516623E-1,-1.3838138E1,-1.1118373E1,-1.3765633E1,-1.4153872E1,-4.4978926E-1,-1.33374195E1,-3.6538813E-1,-1.4193162E1,-4.4141766E-1,6.0240227E-1,8.314958E0,8.988209E-1,2.0397497E1,7.885576E0,-2.9772027E0,-1.0599514E1,-3.2429268E0,3.8730333E0,3.4225523E-1,6.7729707E0,1.1431777E1,1.5699127E1,2.385822E1,1.4431861E-1,1.0016483E1,6.3038343E-1,9.367764E-1,1.130195E1,1.6407816E1,2.5280262E1,1.39631605E1,1.1116772E0,7.36195E-1,4.6014705E-1,3.7245834E-1,-3.7811532E0,-1.9484808E0,-1.8136747E-1,-4.553462E0,2.8917597E1,1.1427242E0,-5.473559E0,1.1779892E1,3.9060047E1,2.8374912E1,7.4834485E0,2.9826047E2,1.1423909E1,1.2157719E1,1.2319143E2,8.773689E1,1.9212404E2,1.4336038E2,1.9115477E1,2.9285074E1,-1.3553488E1,-4.2028436E-1,-4.1826996E-1,-3.9657936E-1,-3.0035785E-1,-3.964251E-1,-1.3538717E1,-1.0374908E1,-3.4233478E-1,-9.145818E0,-1.3163753E1,-4.1076297E-1,-1.3667058E1,-1.1356326E1,-1.5669502E-1,-3.7149389E0,-2.8173512E-1,-1.1801927E1,-4.2424563E-1,-3.9069977E-1,-4.3938914E-1,-4.138857E-1,-4.0904915E-1,-4.422205E-1,-4.52634E-1,-4.346342E-1,-4.2253223E-1,-1.3333806E1,-3.6590254E-1,-1.0154373E1,-1.3079141E1,-1.4121504E1,-1.4322537E1,-4.1581994E-1,-4.0869918E-1,-3.846782E-1,-4.393313E-1,-4.1807422E-1,4.9539372E-2,9.974214E0,2.3388794E1,4.5277548E-1,3.3215559E0,1.4330437E1,-5.9953046E0,1.2010785E0,-1.1925747E1,-9.918713E0,-6.1908607E0,1.2586166E0,2.4878657E0,5.9265485E0,3.404501E-2,-1.8716687E-2,1.3627462E-1,7.276124E0,3.9034042E-1,2.7768686E-1,3.499349E-1,1.7018467E1,8.256196E-1,6.0384613E-1,2.586682E-1,3.4112215E-1,3.746434E-1,3.0187994E-1,1.301285E1,6.1283135E-1,6.331874E-1,8.497618E-1,3.7760866E-1,4.5779264E-1,-9.365637E-2,-1.3218181E-1,-1.0848067E0,-2.7302933E0,-1.1607213E-1,-1.4772598E-1,8.0156344E-1,9.5152855E-1,-2.0072533E-2,-2.4987581E-1,7.144839E0,1.4541018E1,1.0190488E0,1.3196644E0,9.282815E-1,7.905528E-1,9.786734E0,8.411551E0,1.3129951E2,1.12488075E2,2.303141E0,9.2508736E1,4.8942795E0,2.006368E2,1.5865309E2,1.2694666E2,1.6375378E1,8.1662506E-1,9.901832E-1,2.6569635E1,-4.1113824E-1,-3.5169438E-1,-4.4013584E-1,-3.5855395E-1,-3.3867374E-1,-2.6356646E-1,-2.943005E-1,-2.6486877E-1,-3.9827788E-1,-1.2247768E1,-3.7555414E-1,-4.2455944E-1,-1.2381165E1,-2.841188E-1,-9.05143E-2,-1.2283622E-1,-3.3215922E-1,-3.805033E-1,-4.213417E-1,-1.2238743E1,-2.9783255E-1,-3.342666E-1,-4.1514945E-1,-3.790256E-1,-4.1397402E-1,-4.3278798E-1,-1.4145739E1,-4.4897398E-1,5.291325E-1,2.0017372E-1,6.507759E-1,7.373635E-1,-3.836114E-2,1.9776808E-1,5.559412E-1,2.7954364E-1,-2.5124002E-1,-1.1594074E-1,-8.384843E-2,2.047933E-1,-3.2245314E-1,-3.9745E-1,-2.403004E-1,-3.1820518E-1,-2.5324023E-1,-1.1044638E-3,2.4085276E-1,-7.827033E-2,1.4933828E-2,1.2167374E-1,1.3197318E-1,2.2203237E-1,1.9181229E-1,2.4829733E-1,6.205128E-1,4.2092517E-1,4.41674E-1,3.3680335E-1,-5.6120595E-3,-4.7476076E-2,-5.1294934E-2,-9.17122E-2,3.3582658E-1,9.115495E-2,2.494582E-1,5.153778E-1,3.4535944E0,4.137938E0,3.248717E0,3.5154057E0,3.0225642E0,2.6462882E0,6.548129E0,5.6556125E0,4.1662903E0,4.953477E0,3.3837264E0,4.0168447E0,5.3603417E-1,4.3334997E-1,8.916866E-1,7.2334605E-1,-4.1029406E-1,-3.223546E-1,-3.4617394E-1,-3.9031363E-1,-3.24193E-1,-4.084678E-1,-4.330543E-1,-4.190416E-1],"categories":[],"categories_nodes":[],"categories_segments":[],"categories_sizes":[],"default_left":[0,0,0,0,0,0,0,0,0,0,0,0,0,0,0,0,0,0,0,0,0,0,0,0,0,0,0,0,0,0,0,0,0,0,0,0,0,0,0,0,0,0,0,0,0,0,0,0,0,0,0,0,0,0,0,0,0,0,0,0,0,0,0,0,0,0,0,0,0,0,0,0,0,0,0,0,0,0,0,0,0,0,0,0,0,0,0,0,0,0,0,0,0,0,0,0,0,0,0,0,0,0,0,0,0,0,0,0,0,0,0,0,0,0,0,0,0,0,0,0,0,0,0,0,0,0,0,0,0,0,0,0,0,0,0,0,0,0,0,0,0,0,0,0,0,0,0,0,0,0,0,0,0,0,0,0,0,0,0,0,0,0,0,0,0,0,0,0,0,0,0,0,0,0,0,0,0,0,0,0,0,0,0,0,0,0,0,0,0,0,0,0,0,0,0,0,0,0,0,0,0,0,0,0,0,0,0,0,0,0,0,0,0,0,0,0,0,0,0,0,0,0,0,0,0,0,0,0,0,0,0,0,0,0,0,0,0,0,0,0,0,0,0,0,0,0,0,0,0,0,0,0,0,0,0,0,0,0,0,0,0,0,0,0,0,0,0,0,0,0,0,0,0,0,0,0,0,0,0,0,0,0,0,0,0,0,0,0,0,0,0,0,0,0,0,0,0,0,0,0,0,0,0,0,0,0,0,0,0,0,0,0,0,0,0,0,0,0,0,0,0,0,0,0,0,0,0,0,0,0,0,0,0,0,0,0,0,0,0,0,0,0,0,0,0,0,0,0,0,0,0,0,0,0,0,0,0,0,0,0,0],"id":4,"left_children":[1,3,5,7,9,11,13,15,17,19,21,23,25,27,29,31,33,35,37,39,41,43,45,47,49,51,53,-1,55,57,59,61,63,65,67,69,71,73,75,77,79,81,83,85,87,89,91,93,95,97,99,101,103,105,107,109,-1,111,113,115,117,-1,119,121,-1,123,125,127,129,131,133,135,137,139,141,143,145,-1,147,149,151,153,155,-1,157,159,161,-1,-1,163,165,167,-1,-1,169,171,173,-1,-1,-1,175,177,-1,179,181,183,185,187,-1,189,-1,191,193,-1,195,197,199,201,-1,203,-1,205,-1,-1,207,-1,209,211,213,215,217,219,221,223,225,227,229,-1,231,-1,-1,233,235,237,239,-1,-1,-1,-1,241,243,-1,245,247,-1,249,251,253,255,-1,257,-1,-1,259,261,263,265,267,269,271,-1,-1,-1,-1,-1,273,275,-1,277,279,-1,281,283,-1,285,-1,287,-1,-1,-1,-1,-1,-1,-1,-1,-1,289,-1,291,293,295,297,-1,-1,-1,-1,-1,-1,299,301,-1,303,305,307,309,311,313,315,317,319,321,-1,-1,-1,323,-1,-1,-1,325,-1,-1,-1,-1,-1,-1,327,-1,-1,-1,-1,-1,-1,-1,329,331,-1,-1,-1,-1,-1,-1,333,335,-1,-1,-1,-1,-1,-1,337,339,-1,341,-1,343,345,347,349,-1,-1,351,-1,-1,-1,-1,-1,-1,-1,-1,-1,353,-1,-1,355,-1,-1,-1,-1,-1,-1,357,-1,-1,-1,-1,-1,-1,359,-1,-1,-1,-1,-1,-1,-1,-1,-1,-1,-1,-1,-1,-1,-1,-1,-1,-1,-1,-1,-1,-1,-1,-1,-1,-1,-1,-1,-1,-1,-1,-1,-1,-1,-1,-1,-1,-1,-1,-1,-1,-1,-1,-1,-1,-1,-1,-1,-1,-1,-1,-1,-1,-1,-1,-1,-1,-1,-1,-1,-1,-1,-1],"loss_changes":[5.544505E5,2.2197892E6,7.213125E2,4.3278117E4,1.3947228E6,1.7139844E2,6.5875E1,2.5774875E4,3.972873E3,1.223228E4,9.272E5,1.2399609E2,2.9591406E2,1.8320312E0,6.4734375E1,4.8152344E1,1.4699019E4,1.9039341E3,6.6175E2,2.5595771E3,5.607326E3,6.340855E5,2.4365362E5,2.0074219E1,1.6346875E2,3.542578E1,3.438047E2,0E0,6.1972656E0,6.828125E0,9.794531E1,6.2177734E0,9.480469E0,1.8643721E3,1.0087761E4,3.7316406E2,1.1001396E3,6.2895996E2,6.4380176E2,3.881421E1,6.429462E1,5.204159E3,8.421719E2,1.1135675E5,5.625459E2,4.4451875E4,1.2773379E3,9.53125E-1,2.0575195E1,1.5194684E2,3.6504883E1,1.8924707E2,1.756836E1,5.3474023E2,1.3053711E1,2.806543E1,0E0,8.828125E-1,1.2853516E1,1.6389453E2,8.472656E0,0E0,3.5742188E-1,3.7578125E0,0E0,4.753806E2,3.047422E2,9.645349E3,7.046422E3,6.961435E1,1.03505615E2,3.557959E2,8.814343E1,1.8497266E2,1.1599072E2,4.0638965E2,3.7675195E2,0E0,1.5981079E1,1.941269E1,5.3073425E0,1.9777441E2,1.5901305E3,0E0,3.5166895E2,7.750375E3,4.4975E2,0E0,0E0,1.12591875E4,2.15125E4,6.1033984E2,0E0,0E0,1.8574219E0,2.0673828E0,2.6170166E1,0E0,0E0,0E0,3.36416E1,2.8952393E1,0E0,4.0625E0,3.1968262E1,5.6920776E0,4.2913574E1,1.8359375E-1,0E0,1.3154297E0,0E0,1.8810547E1,7.453125E0,0E0,2.8339844E0,2.9802002E1,1.8890625E1,4.7382812E0,0E0,2.5390625E-2,0E0,3.28125E-1,0E0,0E0,2.7520044E2,0E0,1.6733691E2,3.26306E3,3.909927E3,2.1785156E2,3.6898337E3,4.1706512E1,6.9575415E0,1.6455322E1,2.0658264E1,5.907617E1,1.2644141E2,0E0,1.5920288E1,0E0,0E0,8.262878E0,1.4425586E2,7.817871E1,6.018799E0,0E0,0E0,0E0,0E0,2.409645E0,1.5125938E1,0E0,1.7237091E0,2.8840332E1,0E0,1.0894026E2,2.0168774E2,1.2808984E2,2.253418E1,0E0,5.527875E3,0E0,0E0,2.4323438E3,5.928125E2,2.846E3,7.5539375E3,2.5791846E2,1.06625E2,9.958984E0,0E0,0E0,0E0,0E0,0E0,8.182251E0,8.639404E0,0E0,7.93457E-3,1.2685547E0,0E0,2.8076172E0,2.3716919E1,0E0,2.081665E0,0E0,1.4886963E1,0E0,0E0,0E0,0E0,0E0,0E0,0E0,0E0,0E0,1.1230469E1,0E0,5.9484863E-1,6.754883E0,1.3769531E0,8.847656E0,0E0,0E0,0E0,0E0,0E0,0E0,5.0270764E2,4.190674E0,0E0,9.7876495E2,9.642949E2,9.110127E2,2.9231028E3,1.25430664E2,2.1007715E2,2.3260137E3,2.8811543E3,2.7638214E1,1.2030502E1,0E0,0E0,0E0,9.48877E0,0E0,0E0,0E0,9.229077E1,0E0,0E0,0E0,0E0,0E0,0E0,1.4103821E1,0E0,0E0,0E0,0E0,0E0,0E0,0E0,4.739682E0,3.4759674E0,0E0,0E0,0E0,0E0,0E0,0E0,9.817169E1,1.6043652E2,0E0,0E0,0E0,0E0,0E0,0E0,1.6410625E3,1.0678125E2,0E0,2.1153906E2,0E0,1.686625E3,1.7865625E3,1.300625E3,2.014502E1,0E0,0E0,4.1784668E1,0E0,0E0,0E0,0E0,0E0,0E0,0E0,0E0,0E0,8.99054E0,0E0,0E0,8.1799316E-1,0E0,0E0,0E0,0E0,0E0,0E0,1.188269E1,0E0,0E0,0E0,0E0,0E0,0E0,8.203125E-2,0E0,0E0,0E0,0E0,0E0,0E0,0E0,0E0,0E0,0E0,0E0,0E0,0E0,0E0,0E0,0E0,0E0,0E0,0E0,0E0,0E0,0E0,0E0,0E0,0E0,0E0,0E0,0E0,0E0,0E0,0E0,0E0,0E0,0E0,0E0,0E0,0E0,0E0,0E0,0E0,0E0,0E0,0E0,0E0,0E0,0E0,0E0,0E0,0E0,0E0,0E0,0E0,0E0,0E0,0E0,0E0,0E0,0E0,0E0,0E0,0E0,0E0,0E0],"parents":[2147483647,0,0,1,1,2,2,3,3,4,4,5,5,6,6,7,7,8,8,9,9,10,10,11,11,12,12,13,13,14,14,15,15,16,16,17,17,18,18,19,19,20,20,21,21,22,22,23,23,24,24,25,25,26,26,28,28,29,29,30,30,31,31,32,32,33,33,34,34,35,35,36,36,37,37,38,38,39,39,40,40,41,41,42,42,43,43,44,44,45,45,46,46,47,47,48,48,49,49,50,50,51,51,52,52,53,53,54,54,55,55,57,57,58,58,59,59,60,60,62,62,63,63,65,65,66,66,67,67,68,68,69,69,70,70,71,71,72,72,73,73,74,74,75,75,76,76,78,78,79,79,80,80,81,81,82,82,84,84,85,85,86,86,89,89,90,90,91,91,94,94,95,95,96,96,100,100,101,101,103,103,104,104,105,105,106,106,107,107,109,109,111,111,112,112,114,114,115,115,116,116,117,117,119,119,121,121,124,124,126,126,127,127,128,128,129,129,130,130,131,131,132,132,133,133,134,134,135,135,136,136,138,138,141,141,142,142,143,143,144,144,149,149,150,150,152,152,153,153,155,155,156,156,157,157,158,158,160,160,163,163,164,164,165,165,166,166,167,167,168,168,169,169,175,175,176,176,178,178,179,179,181,181,182,182,184,184,186,186,196,196,198,198,199,199,200,200,201,201,208,208,209,209,211,211,212,212,213,213,214,214,215,215,216,216,217,217,218,218,219,219,220,220,224,224,228,228,235,235,243,243,244,244,251,251,252,252,259,259,260,260,262,262,264,264,265,265,266,266,267,267,270,270,280,280,283,283,290,290,297,297],"right_children":[2,4,6,8,10,12,14,16,18,20,22,24,26,28,30,32,34,36,38,40,42,44,46,48,50,52,54,-1,56,58,60,62,64,66,68,70,72,74,76,78,80,82,84,86,88,90,92,94,96,98,100,102,104,106,108,110,-1,112,114,116,118,-1,120,122,-1,124,126,128,130,132,134,136,138,140,142,144,146,-1,148,150,152,154,156,-1,158,160,162,-1,-1,164,166,168,-1,-1,170,172,174,-1,-1,-1,176,178,-1,180,182,184,186,188,-1,190,-1,192,194,-1,196,198,200,202,-1,204,-1,206,-1,-1,208,-1,210,212,214,216,218,220,222,224,226,228,230,-1,232,-1,-1,234,236,238,240,-1,-1,-1,-1,242,244,-1,246,248,-1,250,252,254,256,-1,258,-1,-1,260,262,264,266,268,270,272,-1,-1,-1,-1,-1,274,276,-1,278,280,-1,282,284,-1,286,-1,288,-1,-1,-1,-1,-1,-1,-1,-1,-1,290,-1,292,294,296,298,-1,-1,-1,-1,-1,-1,300,302,-1,304,306,308,310,312,314,316,318,320,322,-1,-1,-1,324,-1,-1,-1,326,-1,-1,-1,-1,-1,-1,328,-1,-1,-1,-1,-1,-1,-1,330,332,-1,-1,-1,-1,-1,-1,334,336,-1,-1,-1,-1,-1,-1,338,340,-1,342,-1,344,346,348,350,-1,-1,352,-1,-1,-1,-1,-1,-1,-1,-1,-1,354,-1,-1,356,-1,-1,-1,-1,-1,-1,358,-1,-1,-1,-1,-1,-1,360,-1,-1,-1,-1,-1,-1,-1,-1,-1,-1,-1,-1,-1,-1,-1,-1,-1,-1,-1,-1,-1,-1,-1,-1,-1,-1,-1,-1,-1,-1,-1,-1,-1,-1,-1,-1,-1,-1,-1,-1,-1,-1,-1,-1,-1,-1,-1,-1,-1,-1,-1,-1,-1,-1,-1,-1,-1,-1,-1,-1,-1,-1,-1],"split_conditions":[5E0,4E0,6E0,1.28E2,2E0,3E0,3E0,1E0,1.024E3,4E0,1.6E1,1.6491846E1,4E0,1E1,2E0,2E0,1.3889824E-1,4E0,2.048E3,1.6E1,6.4E1,4E0,4E0,1.024E3,2E0,1.6E1,4E0,-4.507301E-1,1.1E1,6.4E1,4E0,1.6E1,1.0463426E1,8E0,4E0,2.56E2,9.373019E-1,1.5703602E0,2.56E2,6E0,6.4E1,7.977263E-1,5.551521E-1,4E0,4E0,4E0,3.6866899E0,1E1,6.4E1,1.1E1,3.2E1,4E0,2.048E3,1.6E1,9.890886E0,1.4878193E1,-4.459144E-1,4E0,4E0,1.6E1,1.9021017E1,-4.2923212E-1,2.048E3,4E0,-4.5898142E-1,6.678458E-2,1.6E1,1.6E1,1E0,1.8640459E0,5.12E2,8E0,2.56E2,2.56E2,2.56E2,8.009878E0,1.0807918E1,2.7904263E-1,1.1E1,6E0,6E0,3.2E1,1.6E1,1.5639478E0,1.1E1,6E0,1E1,5.831337E-1,1.0915878E0,6.4E1,3.2E1,4E0,1.3852199E0,-4.2916542E-1,1.1E1,1.6E1,2E0,-9.9240586E-2,-3.4883E-1,-4.3198836E-1,2E0,2E0,-4.193163E-1,1.1E1,4E0,6E0,3.2E1,1E1,-3.3964413E-1,6.841277E0,-3.3216736E-1,1.6E1,1.6E1,-4.4516623E-1,9E0,4E0,3.2E1,1.024E3,-4.4978926E-1,6.4E1,-3.6538813E-1,1.6E1,-4.4141766E-1,6.0240227E-1,4E0,8.988209E-1,1.1E1,4E0,4E0,1E1,4E0,5.12E2,2E0,6E0,2E0,6E0,1.1E1,1.4431861E-1,5.12E2,6.3038343E-1,9.367764E-1,3.6295533E0,1E1,4E0,1E1,1.1116772E0,7.36195E-1,4.6014705E-1,3.7245834E-1,3.2E1,3.2E1,-1.8136747E-1,1.1E1,1.1E1,1.1427242E0,1.024E3,3.2E1,5.12E2,2.138039E0,7.4834485E0,1.1E1,1.1423909E1,1.2157719E1,3.2E1,6E0,6E0,6.4E1,1.024E3,4.2327118E-1,4.018306E0,-4.2028436E-1,-4.1826996E-1,-3.9657936E-1,-3.0035785E-1,-3.964251E-1,1E1,4.304516E1,-3.4233478E-1,6E0,8.009878E0,-4.1076297E-1,1.4518707E1,6.4E1,-1.5669502E-1,1.1E1,-2.8173512E-1,6.4E1,-4.2424563E-1,-3.9069977E-1,-4.3938914E-1,-4.138857E-1,-4.0904915E-1,-4.422205E-1,-4.52634E-1,-4.346342E-1,-4.2253223E-1,1.024E3,-3.6590254E-1,4.6889677E0,4E0,6.4E1,2.8191016E0,-4.1581994E-1,-4.0869918E-1,-3.846782E-1,-4.393313E-1,-4.1807422E-1,4.9539372E-2,1.6E1,3.2E1,4.5277548E-1,2E0,1.1499829E0,2E0,1E0,4E0,1.1E1,6.4E1,5.8017266E-1,2E0,2E0,3.404501E-2,-1.8716687E-2,1.3627462E-1,2.56E2,3.9034042E-1,2.7768686E-1,3.499349E-1,1.1E1,8.256196E-1,6.0384613E-1,2.586682E-1,3.4112215E-1,3.746434E-1,3.0187994E-1,7.8448873E0,6.1283135E-1,6.331874E-1,8.497618E-1,3.7760866E-1,4.5779264E-1,-9.365637E-2,-1.3218181E-1,1.1E1,1.1E1,-1.1607213E-1,-1.4772598E-1,8.0156344E-1,9.5152855E-1,-2.0072533E-2,-2.4987581E-1,1.024E3,6E0,1.0190488E0,1.3196644E0,9.282815E-1,7.905528E-1,9.786734E0,8.411551E0,6E0,1.024E3,2.303141E0,1.1E1,4.8942795E0,1.1E1,6E0,6E0,6.4E1,8.1662506E-1,9.901832E-1,6.4E1,-4.1113824E-1,-3.5169438E-1,-4.4013584E-1,-3.5855395E-1,-3.3867374E-1,-2.6356646E-1,-2.943005E-1,-2.6486877E-1,-3.9827788E-1,6E0,-3.7555414E-1,-4.2455944E-1,1.1E1,-2.841188E-1,-9.05143E-2,-1.2283622E-1,-3.3215922E-1,-3.805033E-1,-4.213417E-1,1.1E1,-2.9783255E-1,-3.342666E-1,-4.1514945E-1,-3.790256E-1,-4.1397402E-1,-4.3278798E-1,4E0,-4.4897398E-1,5.291325E-1,2.0017372E-1,6.507759E-1,7.373635E-1,-3.836114E-2,1.9776808E-1,5.559412E-1,2.7954364E-1,-2.5124002E-1,-1.1594074E-1,-8.384843E-2,2.047933E-1,-3.2245314E-1,-3.9745E-1,-2.403004E-1,-3.1820518E-1,-2.5324023E-1,-1.1044638E-3,2.4085276E-1,-7.827033E-2,1.4933828E-2,1.2167374E-1,1.3197318E-1,2.2203237E-1,1.9181229E-1,2.4829733E-1,6.205128E-1,4.2092517E-1,4.41674E-1,3.3680335E-1,-5.6120595E-3,-4.7476076E-2,-5.1294934E-2,-9.17122E-2,3.3582658E-1,9.115495E-2,2.494582E-1,5.153778E-1,3.4535944E0,4.137938E0,3.248717E0,3.5154057E0,3.0225642E0,2.6462882E0,6.548129E0,5.6556125E0,4.1662903E0,4.953477E0,3.3837264E0,4.0168447E0,5.3603417E-1,4.3334997E-1,8.916866E-1,7.2334605E-1,-4.1029406E-1,-3.223546E-1,-3.4617394E-1,-3.9031363E-1,-3.24193E-1,-4.084678E-1,-4.330543E-1,-4.190416E-1],"split_indices":[0,0,0,5,3,1,1,1,4,1,5,6,3,2,3,3,6,3,4,5,5,1,1,4,3,5,1,0,2,5,1,5,6,3,1,5,6,6,5,2,5,6,6,3,3,3,6,2,5,2,5,1,4,5,6,6,0,1,1,5,6,0,4,3,0,6,5,5,0,6,4,3,5,5,5,6,6,0,2,2,2,5,5,0,2,2,2,0,0,5,5,3,0,0,2,5,3,0,0,0,1,3,0,2,1,2,5,2,0,6,0,5,5,0,2,3,5,4,0,5,0,5,0,0,3,0,2,3,3,2,3,4,3,2,3,2,2,0,4,0,0,6,2,3,2,0,0,0,0,5,5,0,2,2,0,4,5,4,6,0,2,0,0,5,2,2,5,4,6,6,0,0,0,0,0,2,6,0,2,6,0,6,5,0,2,0,5,0,0,0,0,0,0,0,0,0,4,0,6,3,5,6,0,0,0,0,0,0,5,5,0,3,6,3,0,3,2,5,6,3,3,0,0,0,4,0,0,0,2,0,0,0,0,0,0,6,0,0,0,0,0,0,0,2,2,0,0,0,0,0,0,4,2,0,0,0,0,0,0,2,4,0,2,0,2,2,2,5,0,0,5,0,0,0,0,0,0,0,0,0,2,0,0,2,0,0,0,0,0,0,2,0,0,0,0,0,0,3,0,0,0,0,0,0,0,0,0,0,0,0,0,0,0,0,0,0,0,0,0,0,0,0,0,0,0,0,0,0,0,0,0,0,0,0,0,0,0,0,0,0,0,0,0,0,0,0,0,0,0,0,0,0,0,0,0,0,0,0,0,0,0],"split_type":[0,0,0,0,0,0,0,0,0,0,0,0,0,0,0,0,0,0,0,0,0,0,0,0,0,0,0,0,0,0,0,0,0,0,0,0,0,0,0,0,0,0,0,0,0,0,0,0,0,0,0,0,0,0,0,0,0,0,0,0,0,0,0,0,0,0,0,0,0,0,0,0,0,0,0,0,0,0,0,0,0,0,0,0,0,0,0,0,0,0,0,0,0,0,0,0,0,0,0,0,0,0,0,0,0,0,0,0,0,0,0,0,0,0,0,0,0,0,0,0,0,0,0,0,0,0,0,0,0,0,0,0,0,0,0,0,0,0,0,0,0,0,0,0,0,0,0,0,0,0,0,0,0,0,0,0,0,0,0,0,0,0,0,0,0,0,0,0,0,0,0,0,0,0,0,0,0,0,0,0,0,0,0,0,0,0,0,0,0,0,0,0,0,0,0,0,0,0,0,0,0,0,0,0,0,0,0,0,0,0,0,0,0,0,0,0,0,0,0,0,0,0,0,0,0,0,0,0,0,0,0,0,0,0,0,0,0,0,0,0,0,0,0,0,0,0,0,0,0,0,0,0,0,0,0,0,0,0,0,0,0,0,0,0,0,0,0,0,0,0,0,0,0,0,0,0,0,0,0,0,0,0,0,0,0,0,0,0,0,0,0,0,0,0,0,0,0,0,0,0,0,0,0,0,0,0,0,0,0,0,0,0,0,0,0,0,0,0,0,0,0,0,0,0,0,0,0,0,0,0,0,0,0,0,0,0,0,0,0,0,0,0,0,0,0,0,0,0,0,0,0,0,0,0,0,0,0,0,0,0,0],"sum_hessian":[3.106E3,1.63E3,1.476E3,1.363E3,2.67E2,5.78E2,8.98E2,1.229E3,1.34E2,1.1E2,1.57E2,2.66E2,3.12E2,2.25E2,6.73E2,2.4E2,9.89E2,8.4E1,5E1,5.9E1,5.1E1,4.3E1,1.14E2,2.31E2,3.5E1,2.09E2,1.03E2,7.6E1,1.49E2,3.31E2,3.42E2,4.6E1,1.94E2,4.5E1,9.44E2,4.7E1,3.7E1,2.7E1,2.3E1,1.3E1,4.6E1,3.5E1,1.6E1,3.5E1,8E0,8.7E1,2.7E1,1.65E2,6.6E1,9E0,2.6E1,5.6E1,1.53E2,5.5E1,4.8E1,5.6E1,9.3E1,2.46E2,8.5E1,1.28E2,2.14E2,1.2E1,3.4E1,1.61E2,3.3E1,2.9E1,1.6E1,4.21E2,5.23E2,2.4E1,2.3E1,2.2E1,1.5E1,8E0,1.9E1,1.3E1,1E1,3E0,1E1,3.1E1,1.5E1,1.1E1,2.4E1,3E0,1.3E1,1.8E1,1.7E1,4E0,4E0,4.3E1,4.4E1,2.4E1,3E0,3.2E1,1.33E2,5.4E1,1.2E1,4E0,5E0,1.1E1,1.5E1,2.5E1,3.1E1,1.26E2,2.7E1,1.5E1,4E1,4.2E1,6E0,5.3E1,3E0,8.5E1,1.61E2,2.5E1,6E1,3.2E1,9.6E1,1.93E2,2.1E1,3E1,4E0,4.5E1,1.16E2,4E0,2.5E1,5E0,1.1E1,1.11E2,3.1E2,2.45E2,2.78E2,1.5E1,9E0,1.6E1,7E0,1.2E1,1E1,5E0,1E1,5E0,3E0,8E0,1.1E1,7E0,6E0,5E0,5E0,4E0,6E0,8E0,2.3E1,4E0,1.1E1,7E0,4E0,8E0,1.6E1,6E0,7E0,5E0,1.3E1,5E0,1.2E1,3E1,1.3E1,1.3E1,3.1E1,1.2E1,1.2E1,5.1E1,8.2E1,2E1,3.4E1,5E0,7E0,7E0,8E0,1.2E1,1.3E1,5.3E1,7.3E1,1.3E1,1.4E1,4E0,1.1E1,1.1E1,2.9E1,4E0,3.8E1,4.2E1,1.1E1,3E1,5.5E1,5.1E1,1.1E2,4E1,2E1,1.5E1,1.7E1,3.3E1,6.3E1,1.22E2,7.1E1,1.9E1,1.1E1,1.6E1,2.9E1,5E0,2E1,7E0,4E0,6.5E1,4.6E1,1.8E2,1.3E2,8.3E1,1.62E2,1.68E2,1.1E2,9E0,6E0,5E0,4E0,3E0,1.3E1,4E0,3E0,3E0,9E0,5E0,5E0,5E0,5E0,4E0,4E0,6E0,5E0,3E0,4E0,3E0,3E0,4E0,4E0,1.1E1,1.2E1,4E0,7E0,4E0,3E0,3E0,5E0,6E0,1E1,3E0,3E0,3E0,4E0,5E0,8E0,1.7E1,1.3E1,4E0,9E0,3E0,1E1,1.6E1,1.5E1,9E0,3E0,5E0,7E0,4.7E1,4E0,4E0,3E0,5E0,3E0,4E0,9E0,4.7E1,6E0,4E0,9E0,9E0,5E0,4E0,7E0,1.6E1,1.3E1,1.2E1,8E0,1.4E1,3E0,1.2E1,2.1E1,3.1E1,3.2E1,9.6E1,2.6E1,6E0,1.4E1,3E0,4E0,2.7E1,3.8E1,2.5E1,2.1E1,8.5E1,9.5E1,7.6E1,5.4E1,4.4E1,3.9E1,4.3E1,1.19E2,1.23E2,4.5E1,4E1,7E1,4E0,5E0,3E0,3E0,7E0,6E0,4E0,5E0,3E0,3E0,4E0,7E0,3E0,9E0,3E0,3E0,3E0,7E0,5E0,1.2E1,7E0,6E0,3E0,6E0,4E0,6E0,4E0,1.2E1,5E0,1E1,5E0,4E0,3E0,4E0,3E0,3E0,4E0,5E0,4E0,4E0,3.6E1,6E1],"tree_param":{"num_deleted":"0","num_feature":"7","num_nodes":"361","size_leaf_vector":"1"}},{"base_weights":[-1.0311541E-1,1.1519493E1,-1.331933E1,-3.2165449E0,8.9479034E1,-1.2438518E1,-1.3873009E1,-4.99204E0,1.3176066E1,8.806739E0,1.43256E2,-1.3058046E1,-1.1888451E1,-1.4321365E1,-1.372231E1,-1.403145E1,-2.8205953E0,9.090788E0,2.0745298E1,8.6192876E-2,1.894692E1,2.625855E2,1.07046524E2,-1.3326991E1,-1.1387648E1,-1.2597994E1,-1.0587844E1,-1.4594019E1,-1.4199978E1,-1.4056085E1,-1.3391775E1,-1.3118254E1,-1.4241369E1,1.3789348E1,-3.5696402E0,5.572091E0,1.3396221E1,1.7074451E1,2.544983E1,1.2355692E1,-3.18547E0,1.1851202E0,2.5356016E1,3.2728647E2,2.791619E1,1.3125333E2,2.5759388E1,-1.349703E1,-1.2875292E1,-1.2821808E1,-9.01692E0,-1.1724207E1,-1.291642E1,-8.977758E0,-1.2604549E1,-4.3290916E-1,-4.5240402E-1,-1.3799706E1,-4.3222493E-1,-4.2441598E-1,-1.3780981E1,-1.2722268E1,-1.3812323E1,-4.1504228E-1,-1.2858442E1,-1.398416E1,-1.4569694E1,9.048332E0,2.2936516E1,-3.139317E-2,-6.4499803E0,2.9515724E0,7.701743E0,1.883717E1,8.462075E0,2.366244E1,1.3763594E1,3.2977848E1,2.0787727E1,1.1524978E1,4.18779E-1,-2.357578E0,-4.8319182E0,7.728733E-1,-6.196458E0,3.836017E1,1.961714E1,2.7487488E2,3.9152454E2,6.132128E-1,1.0589219E0,1.0918116E2,1.5425426E2,2.3454313E1,1.3438014E0,-4.1586888E-1,-1.3408029E1,-3.953697E-1,-1.1888664E1,-1.3605849E1,-3.533997E-1,-1.2943177E-1,-1.0881751E1,-9.8918E0,-4.0644783E-1,-1.2564679E1,-1.3186164E1,-4.112755E0,-1.0784289E1,-1.2709506E1,-3.2984555E-1,-1.3975518E1,-3.222355E-1,-4.316649E-1,-1.3533817E1,-1.071819E1,-1.3367893E1,-1.3723605E1,-4.36538E-1,-3.9701778E-1,-1.2367668E1,-1.3653653E1,-4.243211E-1,-4.4458663E-1,-1.4319926E1,5.843753E-1,7.3682766E0,8.7191004E-1,1.9836973E1,7.534235E0,-2.7254972E0,-1.0260181E1,-2.9123123E0,4.3552837E0,4.8022258E-1,6.487264E0,1.0561947E1,1.4020105E1,2.3144201E1,4.337243E0,1.1541186E1,6.115097E-1,8.3024776E-1,1.2683882E1,5.7206565E-1,8.269779E-1,1.084306E0,1.6821892E1,7.608662E-1,3.6526182E-1,3.1112638E-1,-3.6683753E0,-1.8749309E0,-1.7594E-1,-4.442305E0,-1.9472344E-2,-8.555324E0,8.9032334E-1,4.325805E1,1.2549527E1,3.0185442E1,7.1664505E0,2.8665536E2,1.2371956E1,3.7796722E2,1.1965969E2,8.605736E1,1.875623E2,1.3962482E2,1.8697313E1,2.8579542E1,-1.30720215E1,-4.079697E-1,-2.8341907E-1,-3.9266092E-1,-4.3878558E-1,-1.293819E1,-3.7155354E-1,-9.843928E0,-3.3110338E-1,-8.896074E0,-3.871708E-1,-1.1718836E1,-4.038557E-1,-3.8793606E-1,-1.476705E-1,-3.8306897E0,-1.0053915E1,-3.6845443E-1,-4.0689442E-1,-3.7782156E-1,-4.2397988E-1,-4.014804E-1,-1.3376015E1,-4.3587208E-1,-3.536262E-1,-2.9287174E-1,-1.2982746E1,-4.2020667E-1,-3.5968506E-1,-1.375083E1,-3.2887757E-1,-1.2701192E1,-4.1873595E-1,-3.9718974E-1,-4.2172793E-1,-4.4432187E-1,6.097026E0,4.1956678E-1,2.2689539E1,3.928349E-1,-1.2992995E0,1.0513952E1,-5.6955867E0,1.3062782E0,